digraph Tree {
node [shape=box, style="filled", color="black"] ;
0 [label="X[28] <= 1.41\ngini = 0.8\nsamples = 25076\nvalue = [5051, 4979, 4998, 5048, 5000]\nclass = Normal", fillcolor="#ffffff"] ;
1 [label="X[50] <= 49192.16\ngini = 0.753\nsamples = 19522\nvalue = [4463, 4892, 143, 5024, 5000]\nclass = Duplicate", fillcolor="#ffffff"] ;
0 -> 1 [labeldistance=2.5, labelangle=45, headlabel="True"] ;
2 [label="X[58] <= 23.503\ngini = 0.748\nsamples = 17840\nvalue = [4342, 3331, 143, 5024, 5000]\nclass = Duplicate", fillcolor="#ffffff"] ;
1 -> 2 ;
3 [label="X[2] <= 18290.5\ngini = 0.74\nsamples = 15306\nvalue = [4194, 3185, 73, 2854, 5000]\nclass = Loss", fillcolor="#fdf1fa"] ;
2 -> 3 ;
4 [label="X[50] <= 48707.664\ngini = 0.753\nsamples = 11022\nvalue = [2874, 2783, 73, 2757, 2535]\nclass = Normal", fillcolor="#fffefd"] ;
3 -> 4 ;
5 [label="X[6] <= 142404320.0\ngini = 0.75\nsamples = 10329\nvalue = [2874, 2783, 73, 2110, 2489]\nclass = Normal", fillcolor="#fffdfd"] ;
4 -> 5 ;
6 [label="X[6] <= 306.004\ngini = 0.751\nsamples = 9800\nvalue = [2351, 2778, 73, 2110, 2488]\nclass = Corrupt", fillcolor="#fafef7"] ;
5 -> 6 ;
7 [label="X[38] <= 0.007\ngini = 0.753\nsamples = 9077\nvalue = [2325, 2109, 73, 2100, 2470]\nclass = Loss", fillcolor="#fefbfe"] ;
6 -> 7 ;
8 [label="X[30] <= 8.742\ngini = 0.596\nsamples = 1856\nvalue = [1089, 190, 1, 322, 254]\nclass = Normal", fillcolor="#f2c09c"] ;
7 -> 8 ;
9 [label="X[27] <= 12153.033\ngini = 0.424\nsamples = 185\nvalue = [7, 25, 0, 137, 16]\nclass = Duplicate", fillcolor="#7774ed"] ;
8 -> 9 ;
10 [label="X[68] <= 0.5\ngini = 0.651\nsamples = 54\nvalue = [2, 17, 0, 25, 10]\nclass = Duplicate", fillcolor="#d5d4f9"] ;
9 -> 10 ;
11 [label="X[30] <= 8.428\ngini = 0.526\nsamples = 44\nvalue = [2, 17, 0, 25, 0]\nclass = Duplicate", fillcolor="#c5c4f7"] ;
10 -> 11 ;
12 [label="X[32] <= 1.12\ngini = 0.488\nsamples = 37\nvalue = [2, 11, 0, 24, 0]\nclass = Duplicate", fillcolor="#9d9cf2"] ;
11 -> 12 ;
13 [label="X[26] <= 1.133\ngini = 0.574\nsamples = 22\nvalue = [2, 9, 0, 11, 0]\nclass = Duplicate", fillcolor="#e1e1fb"] ;
12 -> 13 ;
14 [label="X[28] <= 0.861\ngini = 0.512\nsamples = 17\nvalue = [2, 4, 0, 11, 0]\nclass = Duplicate", fillcolor="#9694f1"] ;
13 -> 14 ;
15 [label="X[31] <= 0.73\ngini = 0.5\nsamples = 8\nvalue = [0, 4, 0, 4, 0]\nclass = Corrupt", fillcolor="#ffffff"] ;
14 -> 15 ;
16 [label="X[28] <= 0.273\ngini = 0.32\nsamples = 5\nvalue = [0, 1, 0, 4, 0]\nclass = Duplicate", fillcolor="#6d6aec"] ;
15 -> 16 ;
17 [label="gini = 0.0\nsamples = 1\nvalue = [0, 1, 0, 0, 0]\nclass = Corrupt", fillcolor="#7be539"] ;
16 -> 17 ;
18 [label="gini = 0.0\nsamples = 4\nvalue = [0, 0, 0, 4, 0]\nclass = Duplicate", fillcolor="#3c39e5"] ;
16 -> 18 ;
19 [label="gini = 0.0\nsamples = 3\nvalue = [0, 3, 0, 0, 0]\nclass = Corrupt", fillcolor="#7be539"] ;
15 -> 19 ;
20 [label="X[30] <= 0.929\ngini = 0.346\nsamples = 9\nvalue = [2, 0, 0, 7, 0]\nclass = Duplicate", fillcolor="#7472ec"] ;
14 -> 20 ;
21 [label="X[32] <= 0.976\ngini = 0.5\nsamples = 4\nvalue = [2, 0, 0, 2, 0]\nclass = Normal", fillcolor="#ffffff"] ;
20 -> 21 ;
22 [label="gini = 0.0\nsamples = 1\nvalue = [0, 0, 0, 1, 0]\nclass = Duplicate", fillcolor="#3c39e5"] ;
21 -> 22 ;
23 [label="X[25] <= 1.921\ngini = 0.444\nsamples = 3\nvalue = [2, 0, 0, 1, 0]\nclass = Normal", fillcolor="#f2c09c"] ;
21 -> 23 ;
24 [label="gini = 0.5\nsamples = 2\nvalue = [1, 0, 0, 1, 0]\nclass = Normal", fillcolor="#ffffff"] ;
23 -> 24 ;
25 [label="gini = 0.0\nsamples = 1\nvalue = [1, 0, 0, 0, 0]\nclass = Normal", fillcolor="#e58139"] ;
23 -> 25 ;
26 [label="gini = 0.0\nsamples = 5\nvalue = [0, 0, 0, 5, 0]\nclass = Duplicate", fillcolor="#3c39e5"] ;
20 -> 26 ;
27 [label="gini = 0.0\nsamples = 5\nvalue = [0, 5, 0, 0, 0]\nclass = Corrupt", fillcolor="#7be539"] ;
13 -> 27 ;
28 [label="X[31] <= 0.147\ngini = 0.231\nsamples = 15\nvalue = [0, 2, 0, 13, 0]\nclass = Duplicate", fillcolor="#5a57e9"] ;
12 -> 28 ;
29 [label="gini = 0.0\nsamples = 1\nvalue = [0, 1, 0, 0, 0]\nclass = Corrupt", fillcolor="#7be539"] ;
28 -> 29 ;
30 [label="X[39] <= 0.035\ngini = 0.133\nsamples = 14\nvalue = [0, 1, 0, 13, 0]\nclass = Duplicate", fillcolor="#4b48e7"] ;
28 -> 30 ;
31 [label="X[28] <= 1.1\ngini = 0.444\nsamples = 3\nvalue = [0, 1, 0, 2, 0]\nclass = Duplicate", fillcolor="#9e9cf2"] ;
30 -> 31 ;
32 [label="gini = 0.0\nsamples = 1\nvalue = [0, 1, 0, 0, 0]\nclass = Corrupt", fillcolor="#7be539"] ;
31 -> 32 ;
33 [label="gini = 0.0\nsamples = 2\nvalue = [0, 0, 0, 2, 0]\nclass = Duplicate", fillcolor="#3c39e5"] ;
31 -> 33 ;
34 [label="gini = 0.0\nsamples = 11\nvalue = [0, 0, 0, 11, 0]\nclass = Duplicate", fillcolor="#3c39e5"] ;
30 -> 34 ;
35 [label="X[25] <= 0.635\ngini = 0.245\nsamples = 7\nvalue = [0, 6, 0, 1, 0]\nclass = Corrupt", fillcolor="#91e95a"] ;
11 -> 35 ;
36 [label="gini = 0.0\nsamples = 6\nvalue = [0, 6, 0, 0, 0]\nclass = Corrupt", fillcolor="#7be539"] ;
35 -> 36 ;
37 [label="gini = 0.0\nsamples = 1\nvalue = [0, 0, 0, 1, 0]\nclass = Duplicate", fillcolor="#3c39e5"] ;
35 -> 37 ;
38 [label="gini = 0.0\nsamples = 10\nvalue = [0, 0, 0, 0, 10]\nclass = Loss", fillcolor="#e539c0"] ;
10 -> 38 ;
39 [label="X[8] <= 2.0\ngini = 0.262\nsamples = 131\nvalue = [5, 8, 0, 112, 6]\nclass = Duplicate", fillcolor="#5a58e9"] ;
9 -> 39 ;
40 [label="X[23] <= 12153.98\ngini = 0.141\nsamples = 120\nvalue = [1, 7, 0, 111, 1]\nclass = Duplicate", fillcolor="#4c49e7"] ;
39 -> 40 ;
41 [label="gini = 0.0\nsamples = 1\nvalue = [0, 1, 0, 0, 0]\nclass = Corrupt", fillcolor="#7be539"] ;
40 -> 41 ;
42 [label="X[27] <= 13453.21\ngini = 0.127\nsamples = 119\nvalue = [1, 6, 0, 111, 1]\nclass = Duplicate", fillcolor="#4a47e7"] ;
40 -> 42 ;
43 [label="X[33] <= 13.282\ngini = 0.113\nsamples = 118\nvalue = [1, 5, 0, 111, 1]\nclass = Duplicate", fillcolor="#4845e7"] ;
42 -> 43 ;
44 [label="gini = 0.0\nsamples = 1\nvalue = [0, 1, 0, 0, 0]\nclass = Corrupt", fillcolor="#7be539"] ;
43 -> 44 ;
45 [label="X[39] <= 38.002\ngini = 0.099\nsamples = 117\nvalue = [1, 4, 0, 111, 1]\nclass = Duplicate", fillcolor="#4644e6"] ;
43 -> 45 ;
46 [label="X[39] <= 37.944\ngini = 0.32\nsamples = 20\nvalue = [0, 4, 0, 16, 0]\nclass = Duplicate", fillcolor="#6d6aec"] ;
45 -> 46 ;
47 [label="X[23] <= 12154.161\ngini = 0.111\nsamples = 17\nvalue = [0, 1, 0, 16, 0]\nclass = Duplicate", fillcolor="#4845e7"] ;
46 -> 47 ;
48 [label="gini = 0.0\nsamples = 1\nvalue = [0, 1, 0, 0, 0]\nclass = Corrupt", fillcolor="#7be539"] ;
47 -> 48 ;
49 [label="gini = 0.0\nsamples = 16\nvalue = [0, 0, 0, 16, 0]\nclass = Duplicate", fillcolor="#3c39e5"] ;
47 -> 49 ;
50 [label="gini = 0.0\nsamples = 3\nvalue = [0, 3, 0, 0, 0]\nclass = Corrupt", fillcolor="#7be539"] ;
46 -> 50 ;
51 [label="X[30] <= 8.72\ngini = 0.041\nsamples = 97\nvalue = [1, 0, 0, 95, 1]\nclass = Duplicate", fillcolor="#403de6"] ;
45 -> 51 ;
52 [label="gini = 0.0\nsamples = 93\nvalue = [0, 0, 0, 93, 0]\nclass = Duplicate", fillcolor="#3c39e5"] ;
51 -> 52 ;
53 [label="X[27] <= 12156.471\ngini = 0.625\nsamples = 4\nvalue = [1, 0, 0, 2, 1]\nclass = Duplicate", fillcolor="#bebdf6"] ;
51 -> 53 ;
54 [label="gini = 0.0\nsamples = 2\nvalue = [0, 0, 0, 2, 0]\nclass = Duplicate", fillcolor="#3c39e5"] ;
53 -> 54 ;
55 [label="X[24] <= 0.268\ngini = 0.5\nsamples = 2\nvalue = [1, 0, 0, 0, 1]\nclass = Normal", fillcolor="#ffffff"] ;
53 -> 55 ;
56 [label="gini = 0.0\nsamples = 1\nvalue = [0, 0, 0, 0, 1]\nclass = Loss", fillcolor="#e539c0"] ;
55 -> 56 ;
57 [label="gini = 0.0\nsamples = 1\nvalue = [1, 0, 0, 0, 0]\nclass = Normal", fillcolor="#e58139"] ;
55 -> 57 ;
58 [label="gini = 0.0\nsamples = 1\nvalue = [0, 1, 0, 0, 0]\nclass = Corrupt", fillcolor="#7be539"] ;
42 -> 58 ;
59 [label="X[30] <= 6.964\ngini = 0.645\nsamples = 11\nvalue = [4, 1, 0, 1, 5]\nclass = Loss", fillcolor="#fbe3f6"] ;
39 -> 59 ;
60 [label="X[23] <= 12432.052\ngini = 0.278\nsamples = 6\nvalue = [1, 0, 0, 0, 5]\nclass = Loss", fillcolor="#ea61cd"] ;
59 -> 60 ;
61 [label="gini = 0.5\nsamples = 2\nvalue = [1, 0, 0, 0, 1]\nclass = Normal", fillcolor="#ffffff"] ;
60 -> 61 ;
62 [label="gini = 0.0\nsamples = 4\nvalue = [0, 0, 0, 0, 4]\nclass = Loss", fillcolor="#e539c0"] ;
60 -> 62 ;
63 [label="X[26] <= 12536.449\ngini = 0.56\nsamples = 5\nvalue = [3, 1, 0, 1, 0]\nclass = Normal", fillcolor="#f2c09c"] ;
59 -> 63 ;
64 [label="X[33] <= 16.106\ngini = 0.5\nsamples = 2\nvalue = [0, 1, 0, 1, 0]\nclass = Corrupt", fillcolor="#ffffff"] ;
63 -> 64 ;
65 [label="gini = 0.0\nsamples = 1\nvalue = [0, 0, 0, 1, 0]\nclass = Duplicate", fillcolor="#3c39e5"] ;
64 -> 65 ;
66 [label="gini = 0.0\nsamples = 1\nvalue = [0, 1, 0, 0, 0]\nclass = Corrupt", fillcolor="#7be539"] ;
64 -> 66 ;
67 [label="gini = 0.0\nsamples = 3\nvalue = [3, 0, 0, 0, 0]\nclass = Normal", fillcolor="#e58139"] ;
63 -> 67 ;
68 [label="X[23] <= 12322.193\ngini = 0.538\nsamples = 1671\nvalue = [1082, 165, 1, 185, 238]\nclass = Normal", fillcolor="#f0b58a"] ;
8 -> 68 ;
69 [label="X[68] <= 0.021\ngini = 0.499\nsamples = 1557\nvalue = [1061, 155, 0, 110, 231]\nclass = Normal", fillcolor="#efb083"] ;
68 -> 69 ;
70 [label="X[39] <= 38.13\ngini = 0.471\nsamples = 1495\nvalue = [1056, 153, 0, 107, 179]\nclass = Normal", fillcolor="#eeab7b"] ;
69 -> 70 ;
71 [label="X[30] <= 9.046\ngini = 0.584\nsamples = 707\nvalue = [416, 115, 0, 33, 143]\nclass = Normal", fillcolor="#f2c29f"] ;
70 -> 71 ;
72 [label="X[4] <= 298.5\ngini = 0.458\nsamples = 91\nvalue = [8, 64, 0, 1, 18]\nclass = Corrupt", fillcolor="#acef82"] ;
71 -> 72 ;
73 [label="X[39] <= 37.952\ngini = 0.1\nsamples = 19\nvalue = [0, 1, 0, 0, 18]\nclass = Loss", fillcolor="#e644c4"] ;
72 -> 73 ;
74 [label="gini = 0.0\nsamples = 1\nvalue = [0, 1, 0, 0, 0]\nclass = Corrupt", fillcolor="#7be539"] ;
73 -> 74 ;
75 [label="gini = 0.0\nsamples = 18\nvalue = [0, 0, 0, 0, 18]\nclass = Loss", fillcolor="#e539c0"] ;
73 -> 75 ;
76 [label="X[28] <= 0.32\ngini = 0.222\nsamples = 72\nvalue = [8, 63, 0, 1, 0]\nclass = Corrupt", fillcolor="#8ee955"] ;
72 -> 76 ;
77 [label="gini = 0.0\nsamples = 63\nvalue = [0, 63, 0, 0, 0]\nclass = Corrupt", fillcolor="#7be539"] ;
76 -> 77 ;
78 [label="X[27] <= 12154.34\ngini = 0.198\nsamples = 9\nvalue = [8, 0, 0, 1, 0]\nclass = Normal", fillcolor="#e89152"] ;
76 -> 78 ;
79 [label="gini = 0.0\nsamples = 8\nvalue = [8, 0, 0, 0, 0]\nclass = Normal", fillcolor="#e58139"] ;
78 -> 79 ;
80 [label="gini = 0.0\nsamples = 1\nvalue = [0, 0, 0, 1, 0]\nclass = Duplicate", fillcolor="#3c39e5"] ;
78 -> 80 ;
81 [label="X[31] <= 0.179\ngini = 0.511\nsamples = 616\nvalue = [408, 51, 0, 32, 125]\nclass = Normal", fillcolor="#f0b68d"] ;
71 -> 81 ;
82 [label="X[39] <= 37.594\ngini = 0.624\nsamples = 126\nvalue = [50, 18, 0, 2, 56]\nclass = Loss", fillcolor="#fdeffa"] ;
81 -> 82 ;
83 [label="X[23] <= 12241.825\ngini = 0.545\nsamples = 80\nvalue = [11, 17, 0, 2, 50]\nclass = Loss", fillcolor="#f197de"] ;
82 -> 83 ;
84 [label="X[32] <= 41.271\ngini = 0.653\nsamples = 36\nvalue = [11, 17, 0, 2, 6]\nclass = Corrupt", fillcolor="#dff9cf"] ;
83 -> 84 ;
85 [label="X[40] <= 17.201\ngini = 0.554\nsamples = 19\nvalue = [11, 0, 0, 2, 6]\nclass = Normal", fillcolor="#f5cfb3"] ;
84 -> 85 ;
86 [label="X[26] <= 12157.147\ngini = 0.477\nsamples = 16\nvalue = [11, 0, 0, 2, 3]\nclass = Normal", fillcolor="#efb185"] ;
85 -> 86 ;
87 [label="X[26] <= 12155.059\ngini = 0.667\nsamples = 6\nvalue = [2, 0, 0, 2, 2]\nclass = Normal", fillcolor="#ffffff"] ;
86 -> 87 ;
88 [label="gini = 0.0\nsamples = 2\nvalue = [2, 0, 0, 0, 0]\nclass = Normal", fillcolor="#e58139"] ;
87 -> 88 ;
89 [label="X[33] <= 17.158\ngini = 0.5\nsamples = 4\nvalue = [0, 0, 0, 2, 2]\nclass = Duplicate", fillcolor="#ffffff"] ;
87 -> 89 ;
90 [label="gini = 0.0\nsamples = 2\nvalue = [0, 0, 0, 0, 2]\nclass = Loss", fillcolor="#e539c0"] ;
89 -> 90 ;
91 [label="gini = 0.0\nsamples = 2\nvalue = [0, 0, 0, 2, 0]\nclass = Duplicate", fillcolor="#3c39e5"] ;
89 -> 91 ;
92 [label="X[31] <= 0.145\ngini = 0.18\nsamples = 10\nvalue = [9, 0, 0, 0, 1]\nclass = Normal", fillcolor="#e88f4f"] ;
86 -> 92 ;
93 [label="gini = 0.0\nsamples = 1\nvalue = [0, 0, 0, 0, 1]\nclass = Loss", fillcolor="#e539c0"] ;
92 -> 93 ;
94 [label="gini = 0.0\nsamples = 9\nvalue = [9, 0, 0, 0, 0]\nclass = Normal", fillcolor="#e58139"] ;
92 -> 94 ;
95 [label="gini = 0.0\nsamples = 3\nvalue = [0, 0, 0, 0, 3]\nclass = Loss", fillcolor="#e539c0"] ;
85 -> 95 ;
96 [label="gini = 0.0\nsamples = 17\nvalue = [0, 17, 0, 0, 0]\nclass = Corrupt", fillcolor="#7be539"] ;
84 -> 96 ;
97 [label="gini = 0.0\nsamples = 44\nvalue = [0, 0, 0, 0, 44]\nclass = Loss", fillcolor="#e539c0"] ;
83 -> 97 ;
98 [label="X[23] <= 12212.809\ngini = 0.264\nsamples = 46\nvalue = [39, 1, 0, 0, 6]\nclass = Normal", fillcolor="#ea975c"] ;
82 -> 98 ;
99 [label="X[23] <= 12162.73\ngini = 0.245\nsamples = 7\nvalue = [0, 1, 0, 0, 6]\nclass = Loss", fillcolor="#e95acb"] ;
98 -> 99 ;
100 [label="gini = 0.0\nsamples = 6\nvalue = [0, 0, 0, 0, 6]\nclass = Loss", fillcolor="#e539c0"] ;
99 -> 100 ;
101 [label="gini = 0.0\nsamples = 1\nvalue = [0, 1, 0, 0, 0]\nclass = Corrupt", fillcolor="#7be539"] ;
99 -> 101 ;
102 [label="gini = 0.0\nsamples = 39\nvalue = [39, 0, 0, 0, 0]\nclass = Normal", fillcolor="#e58139"] ;
98 -> 102 ;
103 [label="X[39] <= 37.7\ngini = 0.438\nsamples = 490\nvalue = [358, 33, 0, 30, 69]\nclass = Normal", fillcolor="#eda977"] ;
81 -> 103 ;
104 [label="X[37] <= 9.359\ngini = 0.506\nsamples = 403\nvalue = [271, 33, 0, 30, 69]\nclass = Normal", fillcolor="#efb387"] ;
103 -> 104 ;
105 [label="X[39] <= 37.504\ngini = 0.393\nsamples = 350\nvalue = [268, 16, 0, 25, 41]\nclass = Normal", fillcolor="#eca26e"] ;
104 -> 105 ;
106 [label="X[25] <= 1.683\ngini = 0.37\nsamples = 341\nvalue = [267, 16, 0, 23, 35]\nclass = Normal", fillcolor="#eb9f69"] ;
105 -> 106 ;
107 [label="X[53] <= 195.5\ngini = 0.523\nsamples = 140\nvalue = [92, 13, 0, 10, 25]\nclass = Normal", fillcolor="#f0b68c"] ;
106 -> 107 ;
108 [label="X[39] <= 36.633\ngini = 0.581\nsamples = 43\nvalue = [21, 3, 0, 1, 18]\nclass = Normal", fillcolor="#fcf0e7"] ;
107 -> 108 ;
109 [label="X[25] <= 1.653\ngini = 0.418\nsamples = 15\nvalue = [11, 3, 0, 0, 1]\nclass = Normal", fillcolor="#eeab7b"] ;
108 -> 109 ;
110 [label="X[33] <= 16.623\ngini = 0.272\nsamples = 13\nvalue = [11, 1, 0, 0, 1]\nclass = Normal", fillcolor="#e9965a"] ;
109 -> 110 ;
111 [label="gini = 0.0\nsamples = 1\nvalue = [0, 0, 0, 0, 1]\nclass = Loss", fillcolor="#e539c0"] ;
110 -> 111 ;
112 [label="X[32] <= 40.567\ngini = 0.153\nsamples = 12\nvalue = [11, 1, 0, 0, 0]\nclass = Normal", fillcolor="#e78c4b"] ;
110 -> 112 ;
113 [label="gini = 0.0\nsamples = 10\nvalue = [10, 0, 0, 0, 0]\nclass = Normal", fillcolor="#e58139"] ;
112 -> 113 ;
114 [label="X[31] <= 0.306\ngini = 0.5\nsamples = 2\nvalue = [1, 1, 0, 0, 0]\nclass = Normal", fillcolor="#ffffff"] ;
112 -> 114 ;
115 [label="gini = 0.0\nsamples = 1\nvalue = [0, 1, 0, 0, 0]\nclass = Corrupt", fillcolor="#7be539"] ;
114 -> 115 ;
116 [label="gini = 0.0\nsamples = 1\nvalue = [1, 0, 0, 0, 0]\nclass = Normal", fillcolor="#e58139"] ;
114 -> 116 ;
117 [label="gini = 0.0\nsamples = 2\nvalue = [0, 2, 0, 0, 0]\nclass = Corrupt", fillcolor="#7be539"] ;
109 -> 117 ;
118 [label="X[32] <= 40.143\ngini = 0.503\nsamples = 28\nvalue = [10, 0, 0, 1, 17]\nclass = Loss", fillcolor="#f5b2e6"] ;
108 -> 118 ;
119 [label="X[75] <= 193.5\ngini = 0.133\nsamples = 14\nvalue = [1, 0, 0, 0, 13]\nclass = Loss", fillcolor="#e748c5"] ;
118 -> 119 ;
120 [label="gini = 0.0\nsamples = 1\nvalue = [1, 0, 0, 0, 0]\nclass = Normal", fillcolor="#e58139"] ;
119 -> 120 ;
121 [label="gini = 0.0\nsamples = 13\nvalue = [0, 0, 0, 0, 13]\nclass = Loss", fillcolor="#e539c0"] ;
119 -> 121 ;
122 [label="X[27] <= 12161.07\ngini = 0.5\nsamples = 14\nvalue = [9, 0, 0, 1, 4]\nclass = Normal", fillcolor="#f2c09c"] ;
118 -> 122 ;
123 [label="X[39] <= 37.076\ngini = 0.403\nsamples = 12\nvalue = [9, 0, 0, 1, 2]\nclass = Normal", fillcolor="#eda774"] ;
122 -> 123 ;
124 [label="gini = 0.0\nsamples = 7\nvalue = [7, 0, 0, 0, 0]\nclass = Normal", fillcolor="#e58139"] ;
123 -> 124 ;
125 [label="X[37] <= 9.316\ngini = 0.64\nsamples = 5\nvalue = [2, 0, 0, 1, 2]\nclass = Normal", fillcolor="#ffffff"] ;
123 -> 125 ;
126 [label="X[6] <= 298.5\ngini = 0.444\nsamples = 3\nvalue = [0, 0, 0, 1, 2]\nclass = Loss", fillcolor="#f29ce0"] ;
125 -> 126 ;
127 [label="gini = 0.0\nsamples = 1\nvalue = [0, 0, 0, 1, 0]\nclass = Duplicate", fillcolor="#3c39e5"] ;
126 -> 127 ;
128 [label="gini = 0.0\nsamples = 2\nvalue = [0, 0, 0, 0, 2]\nclass = Loss", fillcolor="#e539c0"] ;
126 -> 128 ;
129 [label="gini = 0.0\nsamples = 2\nvalue = [2, 0, 0, 0, 0]\nclass = Normal", fillcolor="#e58139"] ;
125 -> 129 ;
130 [label="gini = 0.0\nsamples = 2\nvalue = [0, 0, 0, 0, 2]\nclass = Loss", fillcolor="#e539c0"] ;
122 -> 130 ;
131 [label="X[25] <= 1.443\ngini = 0.44\nsamples = 97\nvalue = [71, 10, 0, 9, 7]\nclass = Normal", fillcolor="#eda774"] ;
107 -> 131 ;
132 [label="X[31] <= 0.325\ngini = 0.133\nsamples = 42\nvalue = [39, 0, 0, 3, 0]\nclass = Normal", fillcolor="#e78b48"] ;
131 -> 132 ;
133 [label="X[32] <= 38.505\ngini = 0.093\nsamples = 41\nvalue = [39, 0, 0, 2, 0]\nclass = Normal", fillcolor="#e68743"] ;
132 -> 133 ;
134 [label="X[39] <= 36.765\ngini = 0.375\nsamples = 4\nvalue = [3, 0, 0, 1, 0]\nclass = Normal", fillcolor="#eeab7b"] ;
133 -> 134 ;
135 [label="gini = 0.0\nsamples = 3\nvalue = [3, 0, 0, 0, 0]\nclass = Normal", fillcolor="#e58139"] ;
134 -> 135 ;
136 [label="gini = 0.0\nsamples = 1\nvalue = [0, 0, 0, 1, 0]\nclass = Duplicate", fillcolor="#3c39e5"] ;
134 -> 136 ;
137 [label="X[16] <= 203.5\ngini = 0.053\nsamples = 37\nvalue = [36, 0, 0, 1, 0]\nclass = Normal", fillcolor="#e6843e"] ;
133 -> 137 ;
138 [label="X[29] <= 1.35\ngini = 0.375\nsamples = 4\nvalue = [3, 0, 0, 1, 0]\nclass = Normal", fillcolor="#eeab7b"] ;
137 -> 138 ;
139 [label="gini = 0.0\nsamples = 3\nvalue = [3, 0, 0, 0, 0]\nclass = Normal", fillcolor="#e58139"] ;
138 -> 139 ;
140 [label="gini = 0.0\nsamples = 1\nvalue = [0, 0, 0, 1, 0]\nclass = Duplicate", fillcolor="#3c39e5"] ;
138 -> 140 ;
141 [label="gini = 0.0\nsamples = 33\nvalue = [33, 0, 0, 0, 0]\nclass = Normal", fillcolor="#e58139"] ;
137 -> 141 ;
142 [label="gini = 0.0\nsamples = 1\nvalue = [0, 0, 0, 1, 0]\nclass = Duplicate", fillcolor="#3c39e5"] ;
132 -> 142 ;
143 [label="X[39] <= 36.63\ngini = 0.6\nsamples = 55\nvalue = [32, 10, 0, 6, 7]\nclass = Normal", fillcolor="#f2c19e"] ;
131 -> 143 ;
144 [label="X[40] <= 16.746\ngini = 0.391\nsamples = 13\nvalue = [1, 10, 0, 1, 1]\nclass = Corrupt", fillcolor="#9cec6b"] ;
143 -> 144 ;
145 [label="gini = 0.0\nsamples = 1\nvalue = [0, 0, 0, 1, 0]\nclass = Duplicate", fillcolor="#3c39e5"] ;
144 -> 145 ;
146 [label="X[29] <= 1.66\ngini = 0.292\nsamples = 12\nvalue = [1, 10, 0, 0, 1]\nclass = Corrupt", fillcolor="#93ea5d"] ;
144 -> 146 ;
147 [label="X[31] <= 0.282\ngini = 0.165\nsamples = 11\nvalue = [1, 10, 0, 0, 0]\nclass = Corrupt", fillcolor="#88e84d"] ;
146 -> 147 ;
148 [label="X[39] <= 36.451\ngini = 0.5\nsamples = 2\nvalue = [1, 1, 0, 0, 0]\nclass = Normal", fillcolor="#ffffff"] ;
147 -> 148 ;
149 [label="gini = 0.0\nsamples = 1\nvalue = [1, 0, 0, 0, 0]\nclass = Normal", fillcolor="#e58139"] ;
148 -> 149 ;
150 [label="gini = 0.0\nsamples = 1\nvalue = [0, 1, 0, 0, 0]\nclass = Corrupt", fillcolor="#7be539"] ;
148 -> 150 ;
151 [label="gini = 0.0\nsamples = 9\nvalue = [0, 9, 0, 0, 0]\nclass = Corrupt", fillcolor="#7be539"] ;
147 -> 151 ;
152 [label="gini = 0.0\nsamples = 1\nvalue = [0, 0, 0, 0, 1]\nclass = Loss", fillcolor="#e539c0"] ;
146 -> 152 ;
153 [label="X[24] <= 0.433\ngini = 0.421\nsamples = 42\nvalue = [31, 0, 0, 5, 6]\nclass = Normal", fillcolor="#eda875"] ;
143 -> 153 ;
154 [label="X[30] <= 10.512\ngini = 0.571\nsamples = 7\nvalue = [2, 0, 0, 1, 4]\nclass = Loss", fillcolor="#f5b0e6"] ;
153 -> 154 ;
155 [label="X[31] <= 0.279\ngini = 0.444\nsamples = 3\nvalue = [2, 0, 0, 1, 0]\nclass = Normal", fillcolor="#f2c09c"] ;
154 -> 155 ;
156 [label="gini = 0.0\nsamples = 1\nvalue = [0, 0, 0, 1, 0]\nclass = Duplicate", fillcolor="#3c39e5"] ;
155 -> 156 ;
157 [label="gini = 0.0\nsamples = 2\nvalue = [2, 0, 0, 0, 0]\nclass = Normal", fillcolor="#e58139"] ;
155 -> 157 ;
158 [label="gini = 0.0\nsamples = 4\nvalue = [0, 0, 0, 0, 4]\nclass = Loss", fillcolor="#e539c0"] ;
154 -> 158 ;
159 [label="X[26] <= 12161.52\ngini = 0.297\nsamples = 35\nvalue = [29, 0, 0, 4, 2]\nclass = Normal", fillcolor="#ea995f"] ;
153 -> 159 ;
160 [label="X[40] <= 16.876\ngini = 0.179\nsamples = 31\nvalue = [28, 0, 0, 2, 1]\nclass = Normal", fillcolor="#e88e4d"] ;
159 -> 160 ;
161 [label="gini = 0.0\nsamples = 1\nvalue = [0, 0, 0, 1, 0]\nclass = Duplicate", fillcolor="#3c39e5"] ;
160 -> 161 ;
162 [label="X[33] <= 16.777\ngini = 0.127\nsamples = 30\nvalue = [28, 0, 0, 1, 1]\nclass = Normal", fillcolor="#e78a47"] ;
160 -> 162 ;
163 [label="gini = 0.0\nsamples = 1\nvalue = [0, 0, 0, 1, 0]\nclass = Duplicate", fillcolor="#3c39e5"] ;
162 -> 163 ;
164 [label="X[27] <= 12157.179\ngini = 0.067\nsamples = 29\nvalue = [28, 0, 0, 0, 1]\nclass = Normal", fillcolor="#e68640"] ;
162 -> 164 ;
165 [label="X[26] <= 12157.492\ngini = 0.278\nsamples = 6\nvalue = [5, 0, 0, 0, 1]\nclass = Normal", fillcolor="#ea9a61"] ;
164 -> 165 ;
166 [label="gini = 0.0\nsamples = 5\nvalue = [5, 0, 0, 0, 0]\nclass = Normal", fillcolor="#e58139"] ;
165 -> 166 ;
167 [label="gini = 0.0\nsamples = 1\nvalue = [0, 0, 0, 0, 1]\nclass = Loss", fillcolor="#e539c0"] ;
165 -> 167 ;
168 [label="gini = 0.0\nsamples = 23\nvalue = [23, 0, 0, 0, 0]\nclass = Normal", fillcolor="#e58139"] ;
164 -> 168 ;
169 [label="X[23] <= 12162.605\ngini = 0.625\nsamples = 4\nvalue = [1, 0, 0, 2, 1]\nclass = Duplicate", fillcolor="#bebdf6"] ;
159 -> 169 ;
170 [label="gini = 0.0\nsamples = 2\nvalue = [0, 0, 0, 2, 0]\nclass = Duplicate", fillcolor="#3c39e5"] ;
169 -> 170 ;
171 [label="X[24] <= 0.554\ngini = 0.5\nsamples = 2\nvalue = [1, 0, 0, 0, 1]\nclass = Normal", fillcolor="#ffffff"] ;
169 -> 171 ;
172 [label="gini = 0.0\nsamples = 1\nvalue = [1, 0, 0, 0, 0]\nclass = Normal", fillcolor="#e58139"] ;
171 -> 172 ;
173 [label="gini = 0.0\nsamples = 1\nvalue = [0, 0, 0, 0, 1]\nclass = Loss", fillcolor="#e539c0"] ;
171 -> 173 ;
174 [label="X[28] <= 1.226\ngini = 0.235\nsamples = 201\nvalue = [175, 3, 0, 13, 10]\nclass = Normal", fillcolor="#e99254"] ;
106 -> 174 ;
175 [label="X[2] <= 16.219\ngini = 0.185\nsamples = 191\nvalue = [172, 2, 0, 9, 8]\nclass = Normal", fillcolor="#e88e4e"] ;
174 -> 175 ;
176 [label="X[18] <= 201.866\ngini = 0.168\nsamples = 189\nvalue = [172, 2, 0, 9, 6]\nclass = Normal", fillcolor="#e78d4c"] ;
175 -> 176 ;
177 [label="X[28] <= 0.696\ngini = 0.444\nsamples = 3\nvalue = [1, 0, 0, 0, 2]\nclass = Loss", fillcolor="#f29ce0"] ;
176 -> 177 ;
178 [label="gini = 0.0\nsamples = 1\nvalue = [1, 0, 0, 0, 0]\nclass = Normal", fillcolor="#e58139"] ;
177 -> 178 ;
179 [label="gini = 0.0\nsamples = 2\nvalue = [0, 0, 0, 0, 2]\nclass = Loss", fillcolor="#e539c0"] ;
177 -> 179 ;
180 [label="X[53] <= 193.5\ngini = 0.152\nsamples = 186\nvalue = [171, 2, 0, 9, 4]\nclass = Normal", fillcolor="#e78c4a"] ;
176 -> 180 ;
181 [label="gini = 0.0\nsamples = 1\nvalue = [0, 1, 0, 0, 0]\nclass = Corrupt", fillcolor="#7be539"] ;
180 -> 181 ;
182 [label="X[39] <= 37.287\ngini = 0.143\nsamples = 185\nvalue = [171, 1, 0, 9, 4]\nclass = Normal", fillcolor="#e78b49"] ;
180 -> 182 ;
183 [label="X[31] <= 0.211\ngini = 0.098\nsamples = 158\nvalue = [150, 1, 0, 4, 3]\nclass = Normal", fillcolor="#e68843"] ;
182 -> 183 ;
184 [label="X[31] <= 0.196\ngini = 0.625\nsamples = 4\nvalue = [2, 0, 0, 1, 1]\nclass = Normal", fillcolor="#f6d5bd"] ;
183 -> 184 ;
185 [label="gini = 0.0\nsamples = 2\nvalue = [2, 0, 0, 0, 0]\nclass = Normal", fillcolor="#e58139"] ;
184 -> 185 ;
186 [label="X[25] <= 1.778\ngini = 0.5\nsamples = 2\nvalue = [0, 0, 0, 1, 1]\nclass = Duplicate", fillcolor="#ffffff"] ;
184 -> 186 ;
187 [label="gini = 0.0\nsamples = 1\nvalue = [0, 0, 0, 0, 1]\nclass = Loss", fillcolor="#e539c0"] ;
186 -> 187 ;
188 [label="gini = 0.0\nsamples = 1\nvalue = [0, 0, 0, 1, 0]\nclass = Duplicate", fillcolor="#3c39e5"] ;
186 -> 188 ;
189 [label="X[23] <= 12154.83\ngini = 0.076\nsamples = 154\nvalue = [148, 1, 0, 3, 2]\nclass = Normal", fillcolor="#e68641"] ;
183 -> 189 ;
190 [label="X[25] <= 1.763\ngini = 0.5\nsamples = 2\nvalue = [1, 1, 0, 0, 0]\nclass = Normal", fillcolor="#ffffff"] ;
189 -> 190 ;
191 [label="gini = 0.0\nsamples = 1\nvalue = [0, 1, 0, 0, 0]\nclass = Corrupt", fillcolor="#7be539"] ;
190 -> 191 ;
192 [label="gini = 0.0\nsamples = 1\nvalue = [1, 0, 0, 0, 0]\nclass = Normal", fillcolor="#e58139"] ;
190 -> 192 ;
193 [label="X[30] <= 10.84\ngini = 0.064\nsamples = 152\nvalue = [147, 0, 0, 3, 2]\nclass = Normal", fillcolor="#e68540"] ;
189 -> 193 ;
194 [label="X[31] <= 0.278\ngini = 0.052\nsamples = 150\nvalue = [146, 0, 0, 2, 2]\nclass = Normal", fillcolor="#e6843e"] ;
193 -> 194 ;
195 [label="X[30] <= 10.754\ngini = 0.34\nsamples = 10\nvalue = [8, 0, 0, 1, 1]\nclass = Normal", fillcolor="#eb9d65"] ;
194 -> 195 ;
196 [label="X[33] <= 17.373\ngini = 0.198\nsamples = 9\nvalue = [8, 0, 0, 1, 0]\nclass = Normal", fillcolor="#e89152"] ;
195 -> 196 ;
197 [label="gini = 0.0\nsamples = 1\nvalue = [0, 0, 0, 1, 0]\nclass = Duplicate", fillcolor="#3c39e5"] ;
196 -> 197 ;
198 [label="gini = 0.0\nsamples = 8\nvalue = [8, 0, 0, 0, 0]\nclass = Normal", fillcolor="#e58139"] ;
196 -> 198 ;
199 [label="gini = 0.0\nsamples = 1\nvalue = [0, 0, 0, 0, 1]\nclass = Loss", fillcolor="#e539c0"] ;
195 -> 199 ;
200 [label="X[31] <= 0.533\ngini = 0.028\nsamples = 140\nvalue = [138, 0, 0, 1, 1]\nclass = Normal", fillcolor="#e5833c"] ;
194 -> 200 ;
201 [label="X[26] <= 12161.82\ngini = 0.015\nsamples = 136\nvalue = [135, 0, 0, 0, 1]\nclass = Normal", fillcolor="#e5823a"] ;
200 -> 201 ;
202 [label="gini = 0.0\nsamples = 124\nvalue = [124, 0, 0, 0, 0]\nclass = Normal", fillcolor="#e58139"] ;
201 -> 202 ;
203 [label="X[24] <= 0.631\ngini = 0.153\nsamples = 12\nvalue = [11, 0, 0, 0, 1]\nclass = Normal", fillcolor="#e78c4b"] ;
201 -> 203 ;
204 [label="gini = 0.0\nsamples = 1\nvalue = [0, 0, 0, 0, 1]\nclass = Loss", fillcolor="#e539c0"] ;
203 -> 204 ;
205 [label="gini = 0.0\nsamples = 11\nvalue = [11, 0, 0, 0, 0]\nclass = Normal", fillcolor="#e58139"] ;
203 -> 205 ;
206 [label="X[24] <= 0.626\ngini = 0.375\nsamples = 4\nvalue = [3, 0, 0, 1, 0]\nclass = Normal", fillcolor="#eeab7b"] ;
200 -> 206 ;
207 [label="gini = 0.0\nsamples = 1\nvalue = [0, 0, 0, 1, 0]\nclass = Duplicate", fillcolor="#3c39e5"] ;
206 -> 207 ;
208 [label="gini = 0.0\nsamples = 3\nvalue = [3, 0, 0, 0, 0]\nclass = Normal", fillcolor="#e58139"] ;
206 -> 208 ;
209 [label="X[30] <= 10.848\ngini = 0.5\nsamples = 2\nvalue = [1, 0, 0, 1, 0]\nclass = Normal", fillcolor="#ffffff"] ;
193 -> 209 ;
210 [label="gini = 0.0\nsamples = 1\nvalue = [0, 0, 0, 1, 0]\nclass = Duplicate", fillcolor="#3c39e5"] ;
209 -> 210 ;
211 [label="gini = 0.0\nsamples = 1\nvalue = [1, 0, 0, 0, 0]\nclass = Normal", fillcolor="#e58139"] ;
209 -> 211 ;
212 [label="X[31] <= 0.348\ngini = 0.359\nsamples = 27\nvalue = [21, 0, 0, 5, 1]\nclass = Normal", fillcolor="#eca36f"] ;
182 -> 212 ;
213 [label="X[24] <= 0.644\ngini = 0.234\nsamples = 23\nvalue = [20, 0, 0, 2, 1]\nclass = Normal", fillcolor="#e99355"] ;
212 -> 213 ;
214 [label="gini = 0.0\nsamples = 14\nvalue = [14, 0, 0, 0, 0]\nclass = Normal", fillcolor="#e58139"] ;
213 -> 214 ;
215 [label="X[24] <= 0.658\ngini = 0.494\nsamples = 9\nvalue = [6, 0, 0, 2, 1]\nclass = Normal", fillcolor="#f0b78e"] ;
213 -> 215 ;
216 [label="gini = 0.0\nsamples = 2\nvalue = [0, 0, 0, 2, 0]\nclass = Duplicate", fillcolor="#3c39e5"] ;
215 -> 216 ;
217 [label="X[40] <= 17.098\ngini = 0.245\nsamples = 7\nvalue = [6, 0, 0, 0, 1]\nclass = Normal", fillcolor="#e9965a"] ;
215 -> 217 ;
218 [label="gini = 0.0\nsamples = 1\nvalue = [0, 0, 0, 0, 1]\nclass = Loss", fillcolor="#e539c0"] ;
217 -> 218 ;
219 [label="gini = 0.0\nsamples = 6\nvalue = [6, 0, 0, 0, 0]\nclass = Normal", fillcolor="#e58139"] ;
217 -> 219 ;
220 [label="X[28] <= 0.729\ngini = 0.375\nsamples = 4\nvalue = [1, 0, 0, 3, 0]\nclass = Duplicate", fillcolor="#7d7bee"] ;
212 -> 220 ;
221 [label="gini = 0.0\nsamples = 3\nvalue = [0, 0, 0, 3, 0]\nclass = Duplicate", fillcolor="#3c39e5"] ;
220 -> 221 ;
222 [label="gini = 0.0\nsamples = 1\nvalue = [1, 0, 0, 0, 0]\nclass = Normal", fillcolor="#e58139"] ;
220 -> 222 ;
223 [label="gini = 0.0\nsamples = 2\nvalue = [0, 0, 0, 0, 2]\nclass = Loss", fillcolor="#e539c0"] ;
175 -> 223 ;
224 [label="X[26] <= 12157.74\ngini = 0.7\nsamples = 10\nvalue = [3, 1, 0, 4, 2]\nclass = Duplicate", fillcolor="#e3e3fb"] ;
174 -> 224 ;
225 [label="gini = 0.0\nsamples = 4\nvalue = [0, 0, 0, 4, 0]\nclass = Duplicate", fillcolor="#3c39e5"] ;
224 -> 225 ;
226 [label="X[6] <= 299.601\ngini = 0.611\nsamples = 6\nvalue = [3, 1, 0, 0, 2]\nclass = Normal", fillcolor="#f8e0ce"] ;
224 -> 226 ;
227 [label="gini = 0.0\nsamples = 2\nvalue = [0, 0, 0, 0, 2]\nclass = Loss", fillcolor="#e539c0"] ;
226 -> 227 ;
228 [label="X[26] <= 12159.431\ngini = 0.375\nsamples = 4\nvalue = [3, 1, 0, 0, 0]\nclass = Normal", fillcolor="#eeab7b"] ;
226 -> 228 ;
229 [label="gini = 0.0\nsamples = 2\nvalue = [2, 0, 0, 0, 0]\nclass = Normal", fillcolor="#e58139"] ;
228 -> 229 ;
230 [label="gini = 0.5\nsamples = 2\nvalue = [1, 1, 0, 0, 0]\nclass = Normal", fillcolor="#ffffff"] ;
228 -> 230 ;
231 [label="X[37] <= 9.336\ngini = 0.494\nsamples = 9\nvalue = [1, 0, 0, 2, 6]\nclass = Loss", fillcolor="#f08edb"] ;
105 -> 231 ;
232 [label="X[4] <= 300.5\ngini = 0.245\nsamples = 7\nvalue = [0, 0, 0, 1, 6]\nclass = Loss", fillcolor="#e95acb"] ;
231 -> 232 ;
233 [label="gini = 0.0\nsamples = 6\nvalue = [0, 0, 0, 0, 6]\nclass = Loss", fillcolor="#e539c0"] ;
232 -> 233 ;
234 [label="gini = 0.0\nsamples = 1\nvalue = [0, 0, 0, 1, 0]\nclass = Duplicate", fillcolor="#3c39e5"] ;
232 -> 234 ;
235 [label="X[30] <= 10.561\ngini = 0.5\nsamples = 2\nvalue = [1, 0, 0, 1, 0]\nclass = Normal", fillcolor="#ffffff"] ;
231 -> 235 ;
236 [label="gini = 0.0\nsamples = 1\nvalue = [0, 0, 0, 1, 0]\nclass = Duplicate", fillcolor="#3c39e5"] ;
235 -> 236 ;
237 [label="gini = 0.0\nsamples = 1\nvalue = [1, 0, 0, 0, 0]\nclass = Normal", fillcolor="#e58139"] ;
235 -> 237 ;
238 [label="X[32] <= 76.972\ngini = 0.606\nsamples = 53\nvalue = [3, 17, 0, 5, 28]\nclass = Loss", fillcolor="#f7c2ec"] ;
104 -> 238 ;
239 [label="X[2] <= 15.5\ngini = 0.535\nsamples = 27\nvalue = [0, 17, 0, 5, 5]\nclass = Corrupt", fillcolor="#b7f193"] ;
238 -> 239 ;
240 [label="gini = 0.0\nsamples = 17\nvalue = [0, 17, 0, 0, 0]\nclass = Corrupt", fillcolor="#7be539"] ;
239 -> 240 ;
241 [label="X[31] <= 0.323\ngini = 0.5\nsamples = 10\nvalue = [0, 0, 0, 5, 5]\nclass = Duplicate", fillcolor="#ffffff"] ;
239 -> 241 ;
242 [label="gini = 0.0\nsamples = 5\nvalue = [0, 0, 0, 5, 0]\nclass = Duplicate", fillcolor="#3c39e5"] ;
241 -> 242 ;
243 [label="gini = 0.0\nsamples = 5\nvalue = [0, 0, 0, 0, 5]\nclass = Loss", fillcolor="#e539c0"] ;
241 -> 243 ;
244 [label="X[39] <= 37.551\ngini = 0.204\nsamples = 26\nvalue = [3, 0, 0, 0, 23]\nclass = Loss", fillcolor="#e853c8"] ;
238 -> 244 ;
245 [label="gini = 0.0\nsamples = 23\nvalue = [0, 0, 0, 0, 23]\nclass = Loss", fillcolor="#e539c0"] ;
244 -> 245 ;
246 [label="gini = 0.0\nsamples = 3\nvalue = [3, 0, 0, 0, 0]\nclass = Normal", fillcolor="#e58139"] ;
244 -> 246 ;
247 [label="gini = 0.0\nsamples = 87\nvalue = [87, 0, 0, 0, 0]\nclass = Normal", fillcolor="#e58139"] ;
103 -> 247 ;
248 [label="X[40] <= 17.67\ngini = 0.327\nsamples = 788\nvalue = [640, 38, 0, 74, 36]\nclass = Normal", fillcolor="#ea9b62"] ;
70 -> 248 ;
249 [label="X[37] <= 9.999\ngini = 0.135\nsamples = 478\nvalue = [444, 4, 0, 23, 7]\nclass = Normal", fillcolor="#e78a48"] ;
248 -> 249 ;
250 [label="X[48] <= 195.5\ngini = 0.121\nsamples = 473\nvalue = [443, 4, 0, 19, 7]\nclass = Normal", fillcolor="#e78946"] ;
249 -> 250 ;
251 [label="X[39] <= 38.205\ngini = 0.065\nsamples = 392\nvalue = [379, 1, 0, 5, 7]\nclass = Normal", fillcolor="#e68540"] ;
250 -> 251 ;
252 [label="X[30] <= 15.091\ngini = 0.278\nsamples = 44\nvalue = [37, 0, 0, 2, 5]\nclass = Normal", fillcolor="#ea985d"] ;
251 -> 252 ;
253 [label="X[37] <= 9.801\ngini = 0.49\nsamples = 21\nvalue = [14, 0, 0, 2, 5]\nclass = Normal", fillcolor="#f0b890"] ;
252 -> 253 ;
254 [label="X[31] <= 0.166\ngini = 0.388\nsamples = 19\nvalue = [14, 0, 0, 0, 5]\nclass = Normal", fillcolor="#eeae80"] ;
253 -> 254 ;
255 [label="X[27] <= 12161.103\ngini = 0.49\nsamples = 7\nvalue = [3, 0, 0, 0, 4]\nclass = Loss", fillcolor="#f8ceef"] ;
254 -> 255 ;
256 [label="X[37] <= 9.614\ngini = 0.32\nsamples = 5\nvalue = [1, 0, 0, 0, 4]\nclass = Loss", fillcolor="#ec6ad0"] ;
255 -> 256 ;
257 [label="gini = 0.0\nsamples = 1\nvalue = [1, 0, 0, 0, 0]\nclass = Normal", fillcolor="#e58139"] ;
256 -> 257 ;
258 [label="gini = 0.0\nsamples = 4\nvalue = [0, 0, 0, 0, 4]\nclass = Loss", fillcolor="#e539c0"] ;
256 -> 258 ;
259 [label="gini = 0.0\nsamples = 2\nvalue = [2, 0, 0, 0, 0]\nclass = Normal", fillcolor="#e58139"] ;
255 -> 259 ;
260 [label="X[37] <= 9.738\ngini = 0.153\nsamples = 12\nvalue = [11, 0, 0, 0, 1]\nclass = Normal", fillcolor="#e78c4b"] ;
254 -> 260 ;
261 [label="gini = 0.0\nsamples = 11\nvalue = [11, 0, 0, 0, 0]\nclass = Normal", fillcolor="#e58139"] ;
260 -> 261 ;
262 [label="gini = 0.0\nsamples = 1\nvalue = [0, 0, 0, 0, 1]\nclass = Loss", fillcolor="#e539c0"] ;
260 -> 262 ;
263 [label="gini = 0.0\nsamples = 2\nvalue = [0, 0, 0, 2, 0]\nclass = Duplicate", fillcolor="#3c39e5"] ;
253 -> 263 ;
264 [label="gini = 0.0\nsamples = 23\nvalue = [23, 0, 0, 0, 0]\nclass = Normal", fillcolor="#e58139"] ;
252 -> 264 ;
265 [label="X[37] <= 9.727\ngini = 0.034\nsamples = 348\nvalue = [342, 1, 0, 3, 2]\nclass = Normal", fillcolor="#e5833c"] ;
251 -> 265 ;
266 [label="X[33] <= 18.024\ngini = 0.014\nsamples = 288\nvalue = [286, 1, 0, 1, 0]\nclass = Normal", fillcolor="#e5823a"] ;
265 -> 266 ;
267 [label="X[25] <= 0.492\ngini = 0.007\nsamples = 274\nvalue = [273, 0, 0, 1, 0]\nclass = Normal", fillcolor="#e5813a"] ;
266 -> 267 ;
268 [label="X[48] <= 194.5\ngini = 0.054\nsamples = 36\nvalue = [35, 0, 0, 1, 0]\nclass = Normal", fillcolor="#e6853f"] ;
267 -> 268 ;
269 [label="gini = 0.0\nsamples = 35\nvalue = [35, 0, 0, 0, 0]\nclass = Normal", fillcolor="#e58139"] ;
268 -> 269 ;
270 [label="gini = 0.0\nsamples = 1\nvalue = [0, 0, 0, 1, 0]\nclass = Duplicate", fillcolor="#3c39e5"] ;
268 -> 270 ;
271 [label="gini = 0.0\nsamples = 238\nvalue = [238, 0, 0, 0, 0]\nclass = Normal", fillcolor="#e58139"] ;
267 -> 271 ;
272 [label="X[23] <= 12161.888\ngini = 0.133\nsamples = 14\nvalue = [13, 1, 0, 0, 0]\nclass = Normal", fillcolor="#e78b48"] ;
266 -> 272 ;
273 [label="gini = 0.0\nsamples = 1\nvalue = [0, 1, 0, 0, 0]\nclass = Corrupt", fillcolor="#7be539"] ;
272 -> 273 ;
274 [label="gini = 0.0\nsamples = 13\nvalue = [13, 0, 0, 0, 0]\nclass = Normal", fillcolor="#e58139"] ;
272 -> 274 ;
275 [label="X[30] <= 9.066\ngini = 0.127\nsamples = 60\nvalue = [56, 0, 0, 2, 2]\nclass = Normal", fillcolor="#e78a47"] ;
265 -> 275 ;
276 [label="X[26] <= 12158.307\ngini = 0.611\nsamples = 6\nvalue = [3, 0, 0, 1, 2]\nclass = Normal", fillcolor="#f8e0ce"] ;
275 -> 276 ;
277 [label="gini = 0.0\nsamples = 3\nvalue = [3, 0, 0, 0, 0]\nclass = Normal", fillcolor="#e58139"] ;
276 -> 277 ;
278 [label="X[53] <= 194.5\ngini = 0.444\nsamples = 3\nvalue = [0, 0, 0, 1, 2]\nclass = Loss", fillcolor="#f29ce0"] ;
276 -> 278 ;
279 [label="gini = 0.0\nsamples = 2\nvalue = [0, 0, 0, 0, 2]\nclass = Loss", fillcolor="#e539c0"] ;
278 -> 279 ;
280 [label="gini = 0.0\nsamples = 1\nvalue = [0, 0, 0, 1, 0]\nclass = Duplicate", fillcolor="#3c39e5"] ;
278 -> 280 ;
281 [label="X[75] <= 193.5\ngini = 0.036\nsamples = 54\nvalue = [53, 0, 0, 1, 0]\nclass = Normal", fillcolor="#e5833d"] ;
275 -> 281 ;
282 [label="X[31] <= 0.181\ngini = 0.32\nsamples = 5\nvalue = [4, 0, 0, 1, 0]\nclass = Normal", fillcolor="#eca06a"] ;
281 -> 282 ;
283 [label="gini = 0.0\nsamples = 4\nvalue = [4, 0, 0, 0, 0]\nclass = Normal", fillcolor="#e58139"] ;
282 -> 283 ;
284 [label="gini = 0.0\nsamples = 1\nvalue = [0, 0, 0, 1, 0]\nclass = Duplicate", fillcolor="#3c39e5"] ;
282 -> 284 ;
285 [label="gini = 0.0\nsamples = 49\nvalue = [49, 0, 0, 0, 0]\nclass = Normal", fillcolor="#e58139"] ;
281 -> 285 ;
286 [label="X[39] <= 38.876\ngini = 0.344\nsamples = 81\nvalue = [64, 3, 0, 14, 0]\nclass = Normal", fillcolor="#eca16b"] ;
250 -> 286 ;
287 [label="gini = 0.0\nsamples = 14\nvalue = [0, 0, 0, 14, 0]\nclass = Duplicate", fillcolor="#3c39e5"] ;
286 -> 287 ;
288 [label="X[39] <= 39.836\ngini = 0.086\nsamples = 67\nvalue = [64, 3, 0, 0, 0]\nclass = Normal", fillcolor="#e68742"] ;
286 -> 288 ;
289 [label="gini = 0.0\nsamples = 59\nvalue = [59, 0, 0, 0, 0]\nclass = Normal", fillcolor="#e58139"] ;
288 -> 289 ;
290 [label="X[6] <= 300.5\ngini = 0.469\nsamples = 8\nvalue = [5, 3, 0, 0, 0]\nclass = Normal", fillcolor="#f5cdb0"] ;
288 -> 290 ;
291 [label="gini = 0.0\nsamples = 3\nvalue = [0, 3, 0, 0, 0]\nclass = Corrupt", fillcolor="#7be539"] ;
290 -> 291 ;
292 [label="gini = 0.0\nsamples = 5\nvalue = [5, 0, 0, 0, 0]\nclass = Normal", fillcolor="#e58139"] ;
290 -> 292 ;
293 [label="X[6] <= 298.0\ngini = 0.32\nsamples = 5\nvalue = [1, 0, 0, 4, 0]\nclass = Duplicate", fillcolor="#6d6aec"] ;
249 -> 293 ;
294 [label="gini = 0.0\nsamples = 1\nvalue = [1, 0, 0, 0, 0]\nclass = Normal", fillcolor="#e58139"] ;
293 -> 294 ;
295 [label="gini = 0.0\nsamples = 4\nvalue = [0, 0, 0, 4, 0]\nclass = Duplicate", fillcolor="#3c39e5"] ;
293 -> 295 ;
296 [label="X[39] <= 38.811\ngini = 0.552\nsamples = 310\nvalue = [196, 34, 0, 51, 29]\nclass = Normal", fillcolor="#f0b890"] ;
248 -> 296 ;
297 [label="X[48] <= 194.5\ngini = 0.652\nsamples = 82\nvalue = [28, 0, 0, 34, 20]\nclass = Duplicate", fillcolor="#e9e9fc"] ;
296 -> 297 ;
298 [label="X[39] <= 38.458\ngini = 0.494\nsamples = 45\nvalue = [25, 0, 0, 0, 20]\nclass = Normal", fillcolor="#fae6d7"] ;
297 -> 298 ;
299 [label="gini = 0.0\nsamples = 21\nvalue = [21, 0, 0, 0, 0]\nclass = Normal", fillcolor="#e58139"] ;
298 -> 299 ;
300 [label="X[30] <= 15.361\ngini = 0.278\nsamples = 24\nvalue = [4, 0, 0, 0, 20]\nclass = Loss", fillcolor="#ea61cd"] ;
298 -> 300 ;
301 [label="gini = 0.0\nsamples = 20\nvalue = [0, 0, 0, 0, 20]\nclass = Loss", fillcolor="#e539c0"] ;
300 -> 301 ;
302 [label="gini = 0.0\nsamples = 4\nvalue = [4, 0, 0, 0, 0]\nclass = Normal", fillcolor="#e58139"] ;
300 -> 302 ;
303 [label="X[32] <= 72.256\ngini = 0.149\nsamples = 37\nvalue = [3, 0, 0, 34, 0]\nclass = Duplicate", fillcolor="#4d4ae7"] ;
297 -> 303 ;
304 [label="gini = 0.0\nsamples = 34\nvalue = [0, 0, 0, 34, 0]\nclass = Duplicate", fillcolor="#3c39e5"] ;
303 -> 304 ;
305 [label="gini = 0.0\nsamples = 3\nvalue = [3, 0, 0, 0, 0]\nclass = Normal", fillcolor="#e58139"] ;
303 -> 305 ;
306 [label="X[32] <= 40.441\ngini = 0.428\nsamples = 228\nvalue = [168, 34, 0, 17, 9]\nclass = Normal", fillcolor="#eda876"] ;
296 -> 306 ;
307 [label="X[29] <= 1.512\ngini = 0.543\nsamples = 128\nvalue = [80, 30, 0, 12, 6]\nclass = Normal", fillcolor="#f2bf9a"] ;
306 -> 307 ;
308 [label="X[25] <= 1.391\ngini = 0.425\nsamples = 99\nvalue = [73, 16, 0, 6, 4]\nclass = Normal", fillcolor="#eda877"] ;
307 -> 308 ;
309 [label="X[39] <= 39.567\ngini = 0.598\nsamples = 53\nvalue = [29, 16, 0, 4, 4]\nclass = Normal", fillcolor="#f6d3b9"] ;
308 -> 309 ;
310 [label="X[37] <= 9.828\ngini = 0.142\nsamples = 13\nvalue = [12, 1, 0, 0, 0]\nclass = Normal", fillcolor="#e78c49"] ;
309 -> 310 ;
311 [label="gini = 0.0\nsamples = 1\nvalue = [0, 1, 0, 0, 0]\nclass = Corrupt", fillcolor="#7be539"] ;
310 -> 311 ;
312 [label="gini = 0.0\nsamples = 12\nvalue = [12, 0, 0, 0, 0]\nclass = Normal", fillcolor="#e58139"] ;
310 -> 312 ;
313 [label="X[39] <= 39.891\ngini = 0.659\nsamples = 40\nvalue = [17, 15, 0, 4, 4]\nclass = Normal", fillcolor="#fdf5ef"] ;
309 -> 313 ;
314 [label="X[23] <= 12162.271\ngini = 0.554\nsamples = 19\nvalue = [3, 12, 0, 2, 2]\nclass = Corrupt", fillcolor="#b5f090"] ;
313 -> 314 ;
315 [label="X[33] <= 17.536\ngini = 0.64\nsamples = 5\nvalue = [2, 0, 0, 2, 1]\nclass = Normal", fillcolor="#ffffff"] ;
314 -> 315 ;
316 [label="X[32] <= 38.518\ngini = 0.444\nsamples = 3\nvalue = [2, 0, 0, 0, 1]\nclass = Normal", fillcolor="#f2c09c"] ;
315 -> 316 ;
317 [label="gini = 0.0\nsamples = 1\nvalue = [0, 0, 0, 0, 1]\nclass = Loss", fillcolor="#e539c0"] ;
316 -> 317 ;
318 [label="gini = 0.0\nsamples = 2\nvalue = [2, 0, 0, 0, 0]\nclass = Normal", fillcolor="#e58139"] ;
316 -> 318 ;
319 [label="gini = 0.0\nsamples = 2\nvalue = [0, 0, 0, 2, 0]\nclass = Duplicate", fillcolor="#3c39e5"] ;
315 -> 319 ;
320 [label="X[28] <= 0.386\ngini = 0.255\nsamples = 14\nvalue = [1, 12, 0, 0, 1]\nclass = Corrupt", fillcolor="#8fe957"] ;
314 -> 320 ;
321 [label="gini = 0.0\nsamples = 12\nvalue = [0, 12, 0, 0, 0]\nclass = Corrupt", fillcolor="#7be539"] ;
320 -> 321 ;
322 [label="X[31] <= 0.178\ngini = 0.5\nsamples = 2\nvalue = [1, 0, 0, 0, 1]\nclass = Normal", fillcolor="#ffffff"] ;
320 -> 322 ;
323 [label="gini = 0.0\nsamples = 1\nvalue = [0, 0, 0, 0, 1]\nclass = Loss", fillcolor="#e539c0"] ;
322 -> 323 ;
324 [label="gini = 0.0\nsamples = 1\nvalue = [1, 0, 0, 0, 0]\nclass = Normal", fillcolor="#e58139"] ;
322 -> 324 ;
325 [label="X[23] <= 12162.23\ngini = 0.517\nsamples = 21\nvalue = [14, 3, 0, 2, 2]\nclass = Normal", fillcolor="#efb286"] ;
313 -> 325 ;
326 [label="gini = 0.0\nsamples = 2\nvalue = [0, 0, 0, 0, 2]\nclass = Loss", fillcolor="#e539c0"] ;
325 -> 326 ;
327 [label="X[70] <= 195.5\ngini = 0.421\nsamples = 19\nvalue = [14, 3, 0, 2, 0]\nclass = Normal", fillcolor="#eda877"] ;
325 -> 327 ;
328 [label="X[39] <= 39.919\ngini = 0.304\nsamples = 17\nvalue = [14, 1, 0, 2, 0]\nclass = Normal", fillcolor="#ea9a61"] ;
327 -> 328 ;
329 [label="X[31] <= 0.266\ngini = 0.64\nsamples = 5\nvalue = [2, 1, 0, 2, 0]\nclass = Normal", fillcolor="#ffffff"] ;
328 -> 329 ;
330 [label="X[37] <= 9.947\ngini = 0.444\nsamples = 3\nvalue = [2, 1, 0, 0, 0]\nclass = Normal", fillcolor="#f2c09c"] ;
329 -> 330 ;
331 [label="gini = 0.0\nsamples = 2\nvalue = [2, 0, 0, 0, 0]\nclass = Normal", fillcolor="#e58139"] ;
330 -> 331 ;
332 [label="gini = 0.0\nsamples = 1\nvalue = [0, 1, 0, 0, 0]\nclass = Corrupt", fillcolor="#7be539"] ;
330 -> 332 ;
333 [label="gini = 0.0\nsamples = 2\nvalue = [0, 0, 0, 2, 0]\nclass = Duplicate", fillcolor="#3c39e5"] ;
329 -> 333 ;
334 [label="gini = 0.0\nsamples = 12\nvalue = [12, 0, 0, 0, 0]\nclass = Normal", fillcolor="#e58139"] ;
328 -> 334 ;
335 [label="gini = 0.0\nsamples = 2\nvalue = [0, 2, 0, 0, 0]\nclass = Corrupt", fillcolor="#7be539"] ;
327 -> 335 ;
336 [label="X[4] <= 296.0\ngini = 0.083\nsamples = 46\nvalue = [44, 0, 0, 2, 0]\nclass = Normal", fillcolor="#e68742"] ;
308 -> 336 ;
337 [label="gini = 0.0\nsamples = 1\nvalue = [0, 0, 0, 1, 0]\nclass = Duplicate", fillcolor="#3c39e5"] ;
336 -> 337 ;
338 [label="X[37] <= 9.712\ngini = 0.043\nsamples = 45\nvalue = [44, 0, 0, 1, 0]\nclass = Normal", fillcolor="#e6843d"] ;
336 -> 338 ;
339 [label="X[4] <= 298.5\ngini = 0.278\nsamples = 6\nvalue = [5, 0, 0, 1, 0]\nclass = Normal", fillcolor="#ea9a61"] ;
338 -> 339 ;
340 [label="gini = 0.0\nsamples = 1\nvalue = [0, 0, 0, 1, 0]\nclass = Duplicate", fillcolor="#3c39e5"] ;
339 -> 340 ;
341 [label="gini = 0.0\nsamples = 5\nvalue = [5, 0, 0, 0, 0]\nclass = Normal", fillcolor="#e58139"] ;
339 -> 341 ;
342 [label="gini = 0.0\nsamples = 39\nvalue = [39, 0, 0, 0, 0]\nclass = Normal", fillcolor="#e58139"] ;
338 -> 342 ;
343 [label="X[32] <= 39.776\ngini = 0.661\nsamples = 29\nvalue = [7, 14, 0, 6, 2]\nclass = Corrupt", fillcolor="#d5f7c0"] ;
307 -> 343 ;
344 [label="X[16] <= 204.5\ngini = 0.704\nsamples = 14\nvalue = [5, 2, 0, 5, 2]\nclass = Normal", fillcolor="#ffffff"] ;
343 -> 344 ;
345 [label="X[37] <= 9.718\ngini = 0.625\nsamples = 12\nvalue = [5, 2, 0, 5, 0]\nclass = Normal", fillcolor="#ffffff"] ;
344 -> 345 ;
346 [label="gini = 0.0\nsamples = 2\nvalue = [0, 0, 0, 2, 0]\nclass = Duplicate", fillcolor="#3c39e5"] ;
345 -> 346 ;
347 [label="X[23] <= 12161.86\ngini = 0.62\nsamples = 10\nvalue = [5, 2, 0, 3, 0]\nclass = Normal", fillcolor="#f8dbc6"] ;
345 -> 347 ;
348 [label="X[70] <= 194.535\ngini = 0.64\nsamples = 5\nvalue = [1, 2, 0, 2, 0]\nclass = Corrupt", fillcolor="#ffffff"] ;
347 -> 348 ;
349 [label="X[29] <= 2.26\ngini = 0.444\nsamples = 3\nvalue = [1, 0, 0, 2, 0]\nclass = Duplicate", fillcolor="#9e9cf2"] ;
348 -> 349 ;
350 [label="gini = 0.0\nsamples = 1\nvalue = [0, 0, 0, 1, 0]\nclass = Duplicate", fillcolor="#3c39e5"] ;
349 -> 350 ;
351 [label="gini = 0.5\nsamples = 2\nvalue = [1, 0, 0, 1, 0]\nclass = Normal", fillcolor="#ffffff"] ;
349 -> 351 ;
352 [label="gini = 0.0\nsamples = 2\nvalue = [0, 2, 0, 0, 0]\nclass = Corrupt", fillcolor="#7be539"] ;
348 -> 352 ;
353 [label="X[24] <= 1.238\ngini = 0.32\nsamples = 5\nvalue = [4, 0, 0, 1, 0]\nclass = Normal", fillcolor="#eca06a"] ;
347 -> 353 ;
354 [label="gini = 0.0\nsamples = 3\nvalue = [3, 0, 0, 0, 0]\nclass = Normal", fillcolor="#e58139"] ;
353 -> 354 ;
355 [label="gini = 0.5\nsamples = 2\nvalue = [1, 0, 0, 1, 0]\nclass = Normal", fillcolor="#ffffff"] ;
353 -> 355 ;
356 [label="gini = 0.0\nsamples = 2\nvalue = [0, 0, 0, 0, 2]\nclass = Loss", fillcolor="#e539c0"] ;
344 -> 356 ;
357 [label="X[25] <= 1.537\ngini = 0.338\nsamples = 15\nvalue = [2, 12, 0, 1, 0]\nclass = Corrupt", fillcolor="#99eb67"] ;
343 -> 357 ;
358 [label="gini = 0.0\nsamples = 1\nvalue = [0, 0, 0, 1, 0]\nclass = Duplicate", fillcolor="#3c39e5"] ;
357 -> 358 ;
359 [label="X[27] <= 12165.415\ngini = 0.245\nsamples = 14\nvalue = [2, 12, 0, 0, 0]\nclass = Corrupt", fillcolor="#91e95a"] ;
357 -> 359 ;
360 [label="X[25] <= 1.568\ngini = 0.142\nsamples = 13\nvalue = [1, 12, 0, 0, 0]\nclass = Corrupt", fillcolor="#86e749"] ;
359 -> 360 ;
361 [label="X[16] <= 203.0\ngini = 0.5\nsamples = 2\nvalue = [1, 1, 0, 0, 0]\nclass = Normal", fillcolor="#ffffff"] ;
360 -> 361 ;
362 [label="gini = 0.0\nsamples = 1\nvalue = [0, 1, 0, 0, 0]\nclass = Corrupt", fillcolor="#7be539"] ;
361 -> 362 ;
363 [label="gini = 0.0\nsamples = 1\nvalue = [1, 0, 0, 0, 0]\nclass = Normal", fillcolor="#e58139"] ;
361 -> 363 ;
364 [label="gini = 0.0\nsamples = 11\nvalue = [0, 11, 0, 0, 0]\nclass = Corrupt", fillcolor="#7be539"] ;
360 -> 364 ;
365 [label="gini = 0.0\nsamples = 1\nvalue = [1, 0, 0, 0, 0]\nclass = Normal", fillcolor="#e58139"] ;
359 -> 365 ;
366 [label="X[33] <= 17.923\ngini = 0.221\nsamples = 100\nvalue = [88, 4, 0, 5, 3]\nclass = Normal", fillcolor="#e89152"] ;
306 -> 366 ;
367 [label="gini = 0.0\nsamples = 53\nvalue = [53, 0, 0, 0, 0]\nclass = Normal", fillcolor="#e58139"] ;
366 -> 367 ;
368 [label="X[30] <= 10.463\ngini = 0.423\nsamples = 47\nvalue = [35, 4, 0, 5, 3]\nclass = Normal", fillcolor="#eca572"] ;
366 -> 368 ;
369 [label="X[39] <= 39.862\ngini = 0.56\nsamples = 5\nvalue = [1, 0, 0, 3, 1]\nclass = Duplicate", fillcolor="#9e9cf2"] ;
368 -> 369 ;
370 [label="X[37] <= 9.764\ngini = 0.5\nsamples = 2\nvalue = [1, 0, 0, 0, 1]\nclass = Normal", fillcolor="#ffffff"] ;
369 -> 370 ;
371 [label="gini = 0.0\nsamples = 1\nvalue = [1, 0, 0, 0, 0]\nclass = Normal", fillcolor="#e58139"] ;
370 -> 371 ;
372 [label="gini = 0.0\nsamples = 1\nvalue = [0, 0, 0, 0, 1]\nclass = Loss", fillcolor="#e539c0"] ;
370 -> 372 ;
373 [label="gini = 0.0\nsamples = 3\nvalue = [0, 0, 0, 3, 0]\nclass = Duplicate", fillcolor="#3c39e5"] ;
369 -> 373 ;
374 [label="X[28] <= 1.158\ngini = 0.331\nsamples = 42\nvalue = [34, 4, 0, 2, 2]\nclass = Normal", fillcolor="#ea9c63"] ;
368 -> 374 ;
375 [label="X[31] <= 0.232\ngini = 0.271\nsamples = 39\nvalue = [33, 4, 0, 0, 2]\nclass = Normal", fillcolor="#e9975b"] ;
374 -> 375 ;
376 [label="X[29] <= 0.634\ngini = 0.531\nsamples = 16\nvalue = [10, 4, 0, 0, 2]\nclass = Normal", fillcolor="#f2c09c"] ;
375 -> 376 ;
377 [label="X[39] <= 39.579\ngini = 0.314\nsamples = 11\nvalue = [9, 1, 0, 0, 1]\nclass = Normal", fillcolor="#ea9a61"] ;
376 -> 377 ;
378 [label="X[48] <= 195.5\ngini = 0.625\nsamples = 4\nvalue = [2, 1, 0, 0, 1]\nclass = Normal", fillcolor="#f6d5bd"] ;
377 -> 378 ;
379 [label="gini = 0.0\nsamples = 2\nvalue = [2, 0, 0, 0, 0]\nclass = Normal", fillcolor="#e58139"] ;
378 -> 379 ;
380 [label="X[28] <= 0.342\ngini = 0.5\nsamples = 2\nvalue = [0, 1, 0, 0, 1]\nclass = Corrupt", fillcolor="#ffffff"] ;
378 -> 380 ;
381 [label="gini = 0.0\nsamples = 1\nvalue = [0, 1, 0, 0, 0]\nclass = Corrupt", fillcolor="#7be539"] ;
380 -> 381 ;
382 [label="gini = 0.0\nsamples = 1\nvalue = [0, 0, 0, 0, 1]\nclass = Loss", fillcolor="#e539c0"] ;
380 -> 382 ;
383 [label="gini = 0.0\nsamples = 7\nvalue = [7, 0, 0, 0, 0]\nclass = Normal", fillcolor="#e58139"] ;
377 -> 383 ;
384 [label="X[26] <= 12165.415\ngini = 0.56\nsamples = 5\nvalue = [1, 3, 0, 0, 1]\nclass = Corrupt", fillcolor="#bdf29c"] ;
376 -> 384 ;
385 [label="X[32] <= 40.928\ngini = 0.5\nsamples = 2\nvalue = [1, 0, 0, 0, 1]\nclass = Normal", fillcolor="#ffffff"] ;
384 -> 385 ;
386 [label="gini = 0.0\nsamples = 1\nvalue = [0, 0, 0, 0, 1]\nclass = Loss", fillcolor="#e539c0"] ;
385 -> 386 ;
387 [label="gini = 0.0\nsamples = 1\nvalue = [1, 0, 0, 0, 0]\nclass = Normal", fillcolor="#e58139"] ;
385 -> 387 ;
388 [label="gini = 0.0\nsamples = 3\nvalue = [0, 3, 0, 0, 0]\nclass = Corrupt", fillcolor="#7be539"] ;
384 -> 388 ;
389 [label="gini = 0.0\nsamples = 23\nvalue = [23, 0, 0, 0, 0]\nclass = Normal", fillcolor="#e58139"] ;
375 -> 389 ;
390 [label="X[16] <= 202.5\ngini = 0.444\nsamples = 3\nvalue = [1, 0, 0, 2, 0]\nclass = Duplicate", fillcolor="#9e9cf2"] ;
374 -> 390 ;
391 [label="gini = 0.0\nsamples = 1\nvalue = [1, 0, 0, 0, 0]\nclass = Normal", fillcolor="#e58139"] ;
390 -> 391 ;
392 [label="gini = 0.0\nsamples = 2\nvalue = [0, 0, 0, 2, 0]\nclass = Duplicate", fillcolor="#3c39e5"] ;
390 -> 392 ;
393 [label="X[57] <= 0.5\ngini = 0.287\nsamples = 62\nvalue = [5, 2, 0, 3, 52]\nclass = Loss", fillcolor="#ea5ccb"] ;
69 -> 393 ;
394 [label="X[39] <= 39.722\ngini = 0.16\nsamples = 57\nvalue = [5, 0, 0, 0, 52]\nclass = Loss", fillcolor="#e84cc6"] ;
393 -> 394 ;
395 [label="X[31] <= 0.141\ngini = 0.038\nsamples = 52\nvalue = [1, 0, 0, 0, 51]\nclass = Loss", fillcolor="#e63dc1"] ;
394 -> 395 ;
396 [label="gini = 0.5\nsamples = 2\nvalue = [1, 0, 0, 0, 1]\nclass = Normal", fillcolor="#ffffff"] ;
395 -> 396 ;
397 [label="gini = 0.0\nsamples = 50\nvalue = [0, 0, 0, 0, 50]\nclass = Loss", fillcolor="#e539c0"] ;
395 -> 397 ;
398 [label="X[75] <= 194.5\ngini = 0.32\nsamples = 5\nvalue = [4, 0, 0, 0, 1]\nclass = Normal", fillcolor="#eca06a"] ;
394 -> 398 ;
399 [label="gini = 0.5\nsamples = 2\nvalue = [1, 0, 0, 0, 1]\nclass = Normal", fillcolor="#ffffff"] ;
398 -> 399 ;
400 [label="gini = 0.0\nsamples = 3\nvalue = [3, 0, 0, 0, 0]\nclass = Normal", fillcolor="#e58139"] ;
398 -> 400 ;
401 [label="X[7] <= 0.5\ngini = 0.48\nsamples = 5\nvalue = [0, 2, 0, 3, 0]\nclass = Duplicate", fillcolor="#bebdf6"] ;
393 -> 401 ;
402 [label="gini = 0.0\nsamples = 3\nvalue = [0, 0, 0, 3, 0]\nclass = Duplicate", fillcolor="#3c39e5"] ;
401 -> 402 ;
403 [label="gini = 0.0\nsamples = 2\nvalue = [0, 2, 0, 0, 0]\nclass = Corrupt", fillcolor="#7be539"] ;
401 -> 403 ;
404 [label="X[5] <= 7.5\ngini = 0.522\nsamples = 114\nvalue = [21, 10, 1, 75, 7]\nclass = Duplicate", fillcolor="#8e8cf0"] ;
68 -> 404 ;
405 [label="X[32] <= 41.964\ngini = 0.362\nsamples = 95\nvalue = [4, 9, 1, 75, 6]\nclass = Duplicate", fillcolor="#6967eb"] ;
404 -> 405 ;
406 [label="X[37] <= 4.619\ngini = 0.214\nsamples = 85\nvalue = [2, 7, 1, 75, 0]\nclass = Duplicate", fillcolor="#5552e8"] ;
405 -> 406 ;
407 [label="X[4] <= 298.5\ngini = 0.625\nsamples = 4\nvalue = [1, 2, 0, 1, 0]\nclass = Corrupt", fillcolor="#d3f6bd"] ;
406 -> 407 ;
408 [label="gini = 0.0\nsamples = 1\nvalue = [0, 0, 0, 1, 0]\nclass = Duplicate", fillcolor="#3c39e5"] ;
407 -> 408 ;
409 [label="X[40] <= 12.921\ngini = 0.444\nsamples = 3\nvalue = [1, 2, 0, 0, 0]\nclass = Corrupt", fillcolor="#bdf29c"] ;
407 -> 409 ;
410 [label="gini = 0.0\nsamples = 1\nvalue = [0, 1, 0, 0, 0]\nclass = Corrupt", fillcolor="#7be539"] ;
409 -> 410 ;
411 [label="gini = 0.5\nsamples = 2\nvalue = [1, 1, 0, 0, 0]\nclass = Normal", fillcolor="#ffffff"] ;
409 -> 411 ;
412 [label="X[37] <= 22.925\ngini = 0.161\nsamples = 81\nvalue = [1, 5, 1, 74, 0]\nclass = Duplicate", fillcolor="#4e4be7"] ;
406 -> 412 ;
413 [label="X[10] <= 1.5\ngini = 0.14\nsamples = 80\nvalue = [1, 5, 0, 74, 0]\nclass = Duplicate", fillcolor="#4c49e7"] ;
412 -> 413 ;
414 [label="X[40] <= 17.16\ngini = 0.12\nsamples = 79\nvalue = [1, 4, 0, 74, 0]\nclass = Duplicate", fillcolor="#4946e7"] ;
413 -> 414 ;
415 [label="gini = 0.0\nsamples = 51\nvalue = [0, 0, 0, 51, 0]\nclass = Duplicate", fillcolor="#3c39e5"] ;
414 -> 415 ;
416 [label="X[23] <= 12360.097\ngini = 0.304\nsamples = 28\nvalue = [1, 4, 0, 23, 0]\nclass = Duplicate", fillcolor="#6562ea"] ;
414 -> 416 ;
417 [label="gini = 0.0\nsamples = 3\nvalue = [0, 3, 0, 0, 0]\nclass = Corrupt", fillcolor="#7be539"] ;
416 -> 417 ;
418 [label="X[24] <= 203.947\ngini = 0.15\nsamples = 25\nvalue = [1, 1, 0, 23, 0]\nclass = Duplicate", fillcolor="#4c49e7"] ;
416 -> 418 ;
419 [label="X[28] <= 0.979\ngini = 0.08\nsamples = 24\nvalue = [0, 1, 0, 23, 0]\nclass = Duplicate", fillcolor="#4442e6"] ;
418 -> 419 ;
420 [label="gini = 0.0\nsamples = 23\nvalue = [0, 0, 0, 23, 0]\nclass = Duplicate", fillcolor="#3c39e5"] ;
419 -> 420 ;
421 [label="gini = 0.0\nsamples = 1\nvalue = [0, 1, 0, 0, 0]\nclass = Corrupt", fillcolor="#7be539"] ;
419 -> 421 ;
422 [label="gini = 0.0\nsamples = 1\nvalue = [1, 0, 0, 0, 0]\nclass = Normal", fillcolor="#e58139"] ;
418 -> 422 ;
423 [label="gini = 0.0\nsamples = 1\nvalue = [0, 1, 0, 0, 0]\nclass = Corrupt", fillcolor="#7be539"] ;
413 -> 423 ;
424 [label="gini = 0.0\nsamples = 1\nvalue = [0, 0, 1, 0, 0]\nclass = Delay", fillcolor="#39e5c5"] ;
412 -> 424 ;
425 [label="X[33] <= 43.646\ngini = 0.56\nsamples = 10\nvalue = [2, 2, 0, 0, 6]\nclass = Loss", fillcolor="#f29ce0"] ;
405 -> 425 ;
426 [label="X[39] <= 38.293\ngini = 0.5\nsamples = 4\nvalue = [2, 2, 0, 0, 0]\nclass = Normal", fillcolor="#ffffff"] ;
425 -> 426 ;
427 [label="gini = 0.0\nsamples = 2\nvalue = [0, 2, 0, 0, 0]\nclass = Corrupt", fillcolor="#7be539"] ;
426 -> 427 ;
428 [label="gini = 0.0\nsamples = 2\nvalue = [2, 0, 0, 0, 0]\nclass = Normal", fillcolor="#e58139"] ;
426 -> 428 ;
429 [label="gini = 0.0\nsamples = 6\nvalue = [0, 0, 0, 0, 6]\nclass = Loss", fillcolor="#e539c0"] ;
425 -> 429 ;
430 [label="X[23] <= 12469.834\ngini = 0.194\nsamples = 19\nvalue = [17, 1, 0, 0, 1]\nclass = Normal", fillcolor="#e88f4f"] ;
404 -> 430 ;
431 [label="X[12] <= 14.5\ngini = 0.105\nsamples = 18\nvalue = [17, 0, 0, 0, 1]\nclass = Normal", fillcolor="#e78845"] ;
430 -> 431 ;
432 [label="gini = 0.0\nsamples = 16\nvalue = [16, 0, 0, 0, 0]\nclass = Normal", fillcolor="#e58139"] ;
431 -> 432 ;
433 [label="gini = 0.5\nsamples = 2\nvalue = [1, 0, 0, 0, 1]\nclass = Normal", fillcolor="#ffffff"] ;
431 -> 433 ;
434 [label="gini = 0.0\nsamples = 1\nvalue = [0, 1, 0, 0, 0]\nclass = Corrupt", fillcolor="#7be539"] ;
430 -> 434 ;
435 [label="X[41] <= 7.982\ngini = 0.745\nsamples = 7221\nvalue = [1236, 1919, 72, 1778, 2216]\nclass = Loss", fillcolor="#fef4fb"] ;
7 -> 435 ;
436 [label="X[30] <= 1.115\ngini = 0.628\nsamples = 1210\nvalue = [230, 355, 20, 605, 0]\nclass = Duplicate", fillcolor="#c6c5f7"] ;
435 -> 436 ;
437 [label="X[32] <= 1.072\ngini = 0.666\nsamples = 871\nvalue = [201, 321, 18, 331, 0]\nclass = Duplicate", fillcolor="#fbfbff"] ;
436 -> 437 ;
438 [label="X[28] <= 0.73\ngini = 0.675\nsamples = 688\nvalue = [200, 195, 18, 275, 0]\nclass = Duplicate", fillcolor="#e1e1fb"] ;
437 -> 438 ;
439 [label="X[0] <= 2.5\ngini = 0.533\nsamples = 138\nvalue = [15, 26, 8, 89, 0]\nclass = Duplicate", fillcolor="#9190f0"] ;
438 -> 439 ;
440 [label="X[23] <= 0.368\ngini = 0.219\nsamples = 8\nvalue = [0, 1, 7, 0, 0]\nclass = Delay", fillcolor="#55e9cd"] ;
439 -> 440 ;
441 [label="gini = 0.0\nsamples = 1\nvalue = [0, 1, 0, 0, 0]\nclass = Corrupt", fillcolor="#7be539"] ;
440 -> 441 ;
442 [label="gini = 0.0\nsamples = 7\nvalue = [0, 0, 7, 0, 0]\nclass = Delay", fillcolor="#39e5c5"] ;
440 -> 442 ;
443 [label="X[39] <= 0.037\ngini = 0.481\nsamples = 130\nvalue = [15, 25, 1, 89, 0]\nclass = Duplicate", fillcolor="#8886ef"] ;
439 -> 443 ;
444 [label="X[23] <= 0.467\ngini = 0.289\nsamples = 49\nvalue = [4, 3, 1, 41, 0]\nclass = Duplicate", fillcolor="#5f5cea"] ;
443 -> 444 ;
445 [label="X[23] <= 0.413\ngini = 0.444\nsamples = 3\nvalue = [0, 2, 0, 1, 0]\nclass = Corrupt", fillcolor="#bdf29c"] ;
444 -> 445 ;
446 [label="gini = 0.0\nsamples = 1\nvalue = [0, 0, 0, 1, 0]\nclass = Duplicate", fillcolor="#3c39e5"] ;
445 -> 446 ;
447 [label="gini = 0.0\nsamples = 2\nvalue = [0, 2, 0, 0, 0]\nclass = Corrupt", fillcolor="#7be539"] ;
445 -> 447 ;
448 [label="X[23] <= 1.618\ngini = 0.235\nsamples = 46\nvalue = [4, 1, 1, 40, 0]\nclass = Duplicate", fillcolor="#5855e9"] ;
444 -> 448 ;
449 [label="X[31] <= 0.136\ngini = 0.174\nsamples = 43\nvalue = [2, 1, 1, 39, 0]\nclass = Duplicate", fillcolor="#4f4ce8"] ;
448 -> 449 ;
450 [label="gini = 0.0\nsamples = 1\nvalue = [1, 0, 0, 0, 0]\nclass = Normal", fillcolor="#e58139"] ;
449 -> 450 ;
451 [label="X[31] <= 0.182\ngini = 0.136\nsamples = 42\nvalue = [1, 1, 1, 39, 0]\nclass = Duplicate", fillcolor="#4a47e7"] ;
449 -> 451 ;
452 [label="X[27] <= 0.565\ngini = 0.5\nsamples = 6\nvalue = [1, 1, 0, 4, 0]\nclass = Duplicate", fillcolor="#8a88ef"] ;
451 -> 452 ;
453 [label="gini = 0.0\nsamples = 4\nvalue = [0, 0, 0, 4, 0]\nclass = Duplicate", fillcolor="#3c39e5"] ;
452 -> 453 ;
454 [label="gini = 0.5\nsamples = 2\nvalue = [1, 1, 0, 0, 0]\nclass = Normal", fillcolor="#ffffff"] ;
452 -> 454 ;
455 [label="X[23] <= 0.481\ngini = 0.054\nsamples = 36\nvalue = [0, 0, 1, 35, 0]\nclass = Duplicate", fillcolor="#423fe6"] ;
451 -> 455 ;
456 [label="gini = 0.0\nsamples = 1\nvalue = [0, 0, 1, 0, 0]\nclass = Delay", fillcolor="#39e5c5"] ;
455 -> 456 ;
457 [label="gini = 0.0\nsamples = 35\nvalue = [0, 0, 0, 35, 0]\nclass = Duplicate", fillcolor="#3c39e5"] ;
455 -> 457 ;
458 [label="X[23] <= 1.635\ngini = 0.444\nsamples = 3\nvalue = [2, 0, 0, 1, 0]\nclass = Normal", fillcolor="#f2c09c"] ;
448 -> 458 ;
459 [label="gini = 0.5\nsamples = 2\nvalue = [1, 0, 0, 1, 0]\nclass = Normal", fillcolor="#ffffff"] ;
458 -> 459 ;
460 [label="gini = 0.0\nsamples = 1\nvalue = [1, 0, 0, 0, 0]\nclass = Normal", fillcolor="#e58139"] ;
458 -> 460 ;
461 [label="X[37] <= 0.03\ngini = 0.557\nsamples = 81\nvalue = [11, 22, 0, 48, 0]\nclass = Duplicate", fillcolor="#a9a8f4"] ;
443 -> 461 ;
462 [label="X[38] <= 0.008\ngini = 0.629\nsamples = 51\nvalue = [9, 20, 0, 22, 0]\nclass = Duplicate", fillcolor="#f2f2fd"] ;
461 -> 462 ;
463 [label="X[39] <= 0.037\ngini = 0.357\nsamples = 14\nvalue = [1, 2, 0, 11, 0]\nclass = Duplicate", fillcolor="#6d6bec"] ;
462 -> 463 ;
464 [label="gini = 0.0\nsamples = 1\nvalue = [0, 1, 0, 0, 0]\nclass = Corrupt", fillcolor="#7be539"] ;
463 -> 464 ;
465 [label="X[29] <= 0.441\ngini = 0.272\nsamples = 13\nvalue = [1, 1, 0, 11, 0]\nclass = Duplicate", fillcolor="#5d5ae9"] ;
463 -> 465 ;
466 [label="gini = 0.0\nsamples = 1\nvalue = [0, 1, 0, 0, 0]\nclass = Corrupt", fillcolor="#7be539"] ;
465 -> 466 ;
467 [label="X[37] <= 0.025\ngini = 0.153\nsamples = 12\nvalue = [1, 0, 0, 11, 0]\nclass = Duplicate", fillcolor="#4e4be7"] ;
465 -> 467 ;
468 [label="gini = 0.0\nsamples = 9\nvalue = [0, 0, 0, 9, 0]\nclass = Duplicate", fillcolor="#3c39e5"] ;
467 -> 468 ;
469 [label="X[32] <= 0.675\ngini = 0.444\nsamples = 3\nvalue = [1, 0, 0, 2, 0]\nclass = Duplicate", fillcolor="#9e9cf2"] ;
467 -> 469 ;
470 [label="gini = 0.5\nsamples = 2\nvalue = [1, 0, 0, 1, 0]\nclass = Normal", fillcolor="#ffffff"] ;
469 -> 470 ;
471 [label="gini = 0.0\nsamples = 1\nvalue = [0, 0, 0, 1, 0]\nclass = Duplicate", fillcolor="#3c39e5"] ;
469 -> 471 ;
472 [label="X[32] <= 0.94\ngini = 0.628\nsamples = 37\nvalue = [8, 18, 0, 11, 0]\nclass = Corrupt", fillcolor="#dbf8ca"] ;
462 -> 472 ;
473 [label="X[23] <= 0.471\ngini = 0.472\nsamples = 21\nvalue = [1, 14, 0, 6, 0]\nclass = Corrupt", fillcolor="#b9f195"] ;
472 -> 473 ;
474 [label="gini = 0.0\nsamples = 2\nvalue = [0, 0, 0, 2, 0]\nclass = Duplicate", fillcolor="#3c39e5"] ;
473 -> 474 ;
475 [label="X[39] <= 0.043\ngini = 0.41\nsamples = 19\nvalue = [1, 14, 0, 4, 0]\nclass = Corrupt", fillcolor="#a7ee7b"] ;
473 -> 475 ;
476 [label="X[28] <= 0.407\ngini = 0.304\nsamples = 17\nvalue = [1, 14, 0, 2, 0]\nclass = Corrupt", fillcolor="#95ea61"] ;
475 -> 476 ;
477 [label="X[39] <= 0.037\ngini = 0.142\nsamples = 13\nvalue = [0, 12, 0, 1, 0]\nclass = Corrupt", fillcolor="#86e749"] ;
476 -> 477 ;
478 [label="X[37] <= 0.026\ngini = 0.5\nsamples = 2\nvalue = [0, 1, 0, 1, 0]\nclass = Corrupt", fillcolor="#ffffff"] ;
477 -> 478 ;
479 [label="gini = 0.0\nsamples = 1\nvalue = [0, 1, 0, 0, 0]\nclass = Corrupt", fillcolor="#7be539"] ;
478 -> 479 ;
480 [label="gini = 0.0\nsamples = 1\nvalue = [0, 0, 0, 1, 0]\nclass = Duplicate", fillcolor="#3c39e5"] ;
478 -> 480 ;
481 [label="gini = 0.0\nsamples = 11\nvalue = [0, 11, 0, 0, 0]\nclass = Corrupt", fillcolor="#7be539"] ;
477 -> 481 ;
482 [label="X[24] <= 0.476\ngini = 0.625\nsamples = 4\nvalue = [1, 2, 0, 1, 0]\nclass = Corrupt", fillcolor="#d3f6bd"] ;
476 -> 482 ;
483 [label="gini = 0.5\nsamples = 2\nvalue = [1, 0, 0, 1, 0]\nclass = Normal", fillcolor="#ffffff"] ;
482 -> 483 ;
484 [label="gini = 0.0\nsamples = 2\nvalue = [0, 2, 0, 0, 0]\nclass = Corrupt", fillcolor="#7be539"] ;
482 -> 484 ;
485 [label="gini = 0.0\nsamples = 2\nvalue = [0, 0, 0, 2, 0]\nclass = Duplicate", fillcolor="#3c39e5"] ;
475 -> 485 ;
486 [label="X[28] <= 0.335\ngini = 0.648\nsamples = 16\nvalue = [7, 4, 0, 5, 0]\nclass = Normal", fillcolor="#fae8db"] ;
472 -> 486 ;
487 [label="gini = 0.0\nsamples = 2\nvalue = [2, 0, 0, 0, 0]\nclass = Normal", fillcolor="#e58139"] ;
486 -> 487 ;
488 [label="X[27] <= 1.414\ngini = 0.663\nsamples = 14\nvalue = [5, 4, 0, 5, 0]\nclass = Normal", fillcolor="#ffffff"] ;
486 -> 488 ;
489 [label="gini = 0.0\nsamples = 2\nvalue = [0, 0, 0, 2, 0]\nclass = Duplicate", fillcolor="#3c39e5"] ;
488 -> 489 ;
490 [label="X[32] <= 0.949\ngini = 0.653\nsamples = 12\nvalue = [5, 4, 0, 3, 0]\nclass = Normal", fillcolor="#fcefe6"] ;
488 -> 490 ;
491 [label="gini = 0.0\nsamples = 1\nvalue = [0, 1, 0, 0, 0]\nclass = Corrupt", fillcolor="#7be539"] ;
490 -> 491 ;
492 [label="X[31] <= 0.425\ngini = 0.645\nsamples = 11\nvalue = [5, 3, 0, 3, 0]\nclass = Normal", fillcolor="#f8e0ce"] ;
490 -> 492 ;
493 [label="X[27] <= 1.444\ngini = 0.656\nsamples = 8\nvalue = [3, 2, 0, 3, 0]\nclass = Normal", fillcolor="#ffffff"] ;
492 -> 493 ;
494 [label="X[39] <= 0.044\ngini = 0.64\nsamples = 5\nvalue = [2, 2, 0, 1, 0]\nclass = Normal", fillcolor="#ffffff"] ;
493 -> 494 ;
495 [label="gini = 0.0\nsamples = 1\nvalue = [0, 1, 0, 0, 0]\nclass = Corrupt", fillcolor="#7be539"] ;
494 -> 495 ;
496 [label="X[28] <= 0.36\ngini = 0.625\nsamples = 4\nvalue = [2, 1, 0, 1, 0]\nclass = Normal", fillcolor="#f6d5bd"] ;
494 -> 496 ;
497 [label="gini = 0.5\nsamples = 2\nvalue = [1, 1, 0, 0, 0]\nclass = Normal", fillcolor="#ffffff"] ;
496 -> 497 ;
498 [label="gini = 0.5\nsamples = 2\nvalue = [1, 0, 0, 1, 0]\nclass = Normal", fillcolor="#ffffff"] ;
496 -> 498 ;
499 [label="X[26] <= 0.438\ngini = 0.444\nsamples = 3\nvalue = [1, 0, 0, 2, 0]\nclass = Duplicate", fillcolor="#9e9cf2"] ;
493 -> 499 ;
500 [label="gini = 0.0\nsamples = 1\nvalue = [0, 0, 0, 1, 0]\nclass = Duplicate", fillcolor="#3c39e5"] ;
499 -> 500 ;
501 [label="gini = 0.5\nsamples = 2\nvalue = [1, 0, 0, 1, 0]\nclass = Normal", fillcolor="#ffffff"] ;
499 -> 501 ;
502 [label="X[37] <= 0.024\ngini = 0.444\nsamples = 3\nvalue = [2, 1, 0, 0, 0]\nclass = Normal", fillcolor="#f2c09c"] ;
492 -> 502 ;
503 [label="gini = 0.0\nsamples = 1\nvalue = [1, 0, 0, 0, 0]\nclass = Normal", fillcolor="#e58139"] ;
502 -> 503 ;
504 [label="gini = 0.5\nsamples = 2\nvalue = [1, 1, 0, 0, 0]\nclass = Normal", fillcolor="#ffffff"] ;
502 -> 504 ;
505 [label="X[2] <= 3.5\ngini = 0.24\nsamples = 30\nvalue = [2, 2, 0, 26, 0]\nclass = Duplicate", fillcolor="#5855e9"] ;
461 -> 505 ;
506 [label="X[38] <= 0.02\ngini = 0.19\nsamples = 29\nvalue = [2, 1, 0, 26, 0]\nclass = Duplicate", fillcolor="#524fe8"] ;
505 -> 506 ;
507 [label="gini = 0.0\nsamples = 19\nvalue = [0, 0, 0, 19, 0]\nclass = Duplicate", fillcolor="#3c39e5"] ;
506 -> 507 ;
508 [label="X[23] <= 0.507\ngini = 0.46\nsamples = 10\nvalue = [2, 1, 0, 7, 0]\nclass = Duplicate", fillcolor="#8583ef"] ;
506 -> 508 ;
509 [label="X[39] <= 0.043\ngini = 0.5\nsamples = 2\nvalue = [0, 1, 0, 1, 0]\nclass = Corrupt", fillcolor="#ffffff"] ;
508 -> 509 ;
510 [label="gini = 0.0\nsamples = 1\nvalue = [0, 0, 0, 1, 0]\nclass = Duplicate", fillcolor="#3c39e5"] ;
509 -> 510 ;
511 [label="gini = 0.0\nsamples = 1\nvalue = [0, 1, 0, 0, 0]\nclass = Corrupt", fillcolor="#7be539"] ;
509 -> 511 ;
512 [label="X[32] <= 0.496\ngini = 0.375\nsamples = 8\nvalue = [2, 0, 0, 6, 0]\nclass = Duplicate", fillcolor="#7d7bee"] ;
508 -> 512 ;
513 [label="X[37] <= 0.038\ngini = 0.444\nsamples = 6\nvalue = [2, 0, 0, 4, 0]\nclass = Duplicate", fillcolor="#9e9cf2"] ;
512 -> 513 ;
514 [label="gini = 0.0\nsamples = 2\nvalue = [0, 0, 0, 2, 0]\nclass = Duplicate", fillcolor="#3c39e5"] ;
513 -> 514 ;
515 [label="X[39] <= 0.139\ngini = 0.5\nsamples = 4\nvalue = [2, 0, 0, 2, 0]\nclass = Normal", fillcolor="#ffffff"] ;
513 -> 515 ;
516 [label="gini = 0.5\nsamples = 2\nvalue = [1, 0, 0, 1, 0]\nclass = Normal", fillcolor="#ffffff"] ;
515 -> 516 ;
517 [label="gini = 0.5\nsamples = 2\nvalue = [1, 0, 0, 1, 0]\nclass = Normal", fillcolor="#ffffff"] ;
515 -> 517 ;
518 [label="gini = 0.0\nsamples = 2\nvalue = [0, 0, 0, 2, 0]\nclass = Duplicate", fillcolor="#3c39e5"] ;
512 -> 518 ;
519 [label="gini = 0.0\nsamples = 1\nvalue = [0, 1, 0, 0, 0]\nclass = Corrupt", fillcolor="#7be539"] ;
505 -> 519 ;
520 [label="X[31] <= 0.865\ngini = 0.678\nsamples = 550\nvalue = [185, 169, 10, 186, 0]\nclass = Duplicate", fillcolor="#fefeff"] ;
438 -> 520 ;
521 [label="X[38] <= 0.009\ngini = 0.643\nsamples = 280\nvalue = [87, 131, 5, 57, 0]\nclass = Corrupt", fillcolor="#e1f9d2"] ;
520 -> 521 ;
522 [label="X[32] <= 1.027\ngini = 0.494\nsamples = 110\nvalue = [19, 74, 0, 17, 0]\nclass = Corrupt", fillcolor="#afef87"] ;
521 -> 522 ;
523 [label="X[32] <= 0.988\ngini = 0.436\nsamples = 98\nvalue = [16, 71, 0, 11, 0]\nclass = Corrupt", fillcolor="#a6ee7a"] ;
522 -> 523 ;
524 [label="X[32] <= 0.976\ngini = 0.614\nsamples = 34\nvalue = [6, 17, 0, 11, 0]\nclass = Corrupt", fillcolor="#ddf8cb"] ;
523 -> 524 ;
525 [label="X[38] <= 0.008\ngini = 0.346\nsamples = 18\nvalue = [4, 14, 0, 0, 0]\nclass = Corrupt", fillcolor="#a1ec72"] ;
524 -> 525 ;
526 [label="X[25] <= 1.868\ngini = 0.463\nsamples = 11\nvalue = [4, 7, 0, 0, 0]\nclass = Corrupt", fillcolor="#c6f4aa"] ;
525 -> 526 ;
527 [label="X[24] <= 0.894\ngini = 0.5\nsamples = 6\nvalue = [3, 3, 0, 0, 0]\nclass = Normal", fillcolor="#ffffff"] ;
526 -> 527 ;
528 [label="gini = 0.5\nsamples = 2\nvalue = [1, 1, 0, 0, 0]\nclass = Normal", fillcolor="#ffffff"] ;
527 -> 528 ;
529 [label="X[27] <= 1.458\ngini = 0.5\nsamples = 4\nvalue = [2, 2, 0, 0, 0]\nclass = Normal", fillcolor="#ffffff"] ;
527 -> 529 ;
530 [label="gini = 0.5\nsamples = 2\nvalue = [1, 1, 0, 0, 0]\nclass = Normal", fillcolor="#ffffff"] ;
529 -> 530 ;
531 [label="gini = 0.5\nsamples = 2\nvalue = [1, 1, 0, 0, 0]\nclass = Normal", fillcolor="#ffffff"] ;
529 -> 531 ;
532 [label="X[30] <= 0.903\ngini = 0.32\nsamples = 5\nvalue = [1, 4, 0, 0, 0]\nclass = Corrupt", fillcolor="#9cec6a"] ;
526 -> 532 ;
533 [label="gini = 0.0\nsamples = 3\nvalue = [0, 3, 0, 0, 0]\nclass = Corrupt", fillcolor="#7be539"] ;
532 -> 533 ;
534 [label="gini = 0.5\nsamples = 2\nvalue = [1, 1, 0, 0, 0]\nclass = Normal", fillcolor="#ffffff"] ;
532 -> 534 ;
535 [label="gini = 0.0\nsamples = 7\nvalue = [0, 7, 0, 0, 0]\nclass = Corrupt", fillcolor="#7be539"] ;
525 -> 535 ;
536 [label="X[39] <= 0.041\ngini = 0.477\nsamples = 16\nvalue = [2, 3, 0, 11, 0]\nclass = Duplicate", fillcolor="#8785ef"] ;
524 -> 536 ;
537 [label="X[38] <= 0.008\ngini = 0.357\nsamples = 14\nvalue = [2, 1, 0, 11, 0]\nclass = Duplicate", fillcolor="#6d6bec"] ;
536 -> 537 ;
538 [label="X[39] <= 0.037\ngini = 0.571\nsamples = 7\nvalue = [2, 1, 0, 4, 0]\nclass = Duplicate", fillcolor="#b1b0f5"] ;
537 -> 538 ;
539 [label="X[23] <= 1.884\ngini = 0.444\nsamples = 6\nvalue = [2, 0, 0, 4, 0]\nclass = Duplicate", fillcolor="#9e9cf2"] ;
538 -> 539 ;
540 [label="gini = 0.0\nsamples = 1\nvalue = [0, 0, 0, 1, 0]\nclass = Duplicate", fillcolor="#3c39e5"] ;
539 -> 540 ;
541 [label="X[38] <= 0.008\ngini = 0.48\nsamples = 5\nvalue = [2, 0, 0, 3, 0]\nclass = Duplicate", fillcolor="#bebdf6"] ;
539 -> 541 ;
542 [label="gini = 0.0\nsamples = 1\nvalue = [0, 0, 0, 1, 0]\nclass = Duplicate", fillcolor="#3c39e5"] ;
541 -> 542 ;
543 [label="X[32] <= 0.981\ngini = 0.5\nsamples = 4\nvalue = [2, 0, 0, 2, 0]\nclass = Normal", fillcolor="#ffffff"] ;
541 -> 543 ;
544 [label="gini = 0.5\nsamples = 2\nvalue = [1, 0, 0, 1, 0]\nclass = Normal", fillcolor="#ffffff"] ;
543 -> 544 ;
545 [label="gini = 0.5\nsamples = 2\nvalue = [1, 0, 0, 1, 0]\nclass = Normal", fillcolor="#ffffff"] ;
543 -> 545 ;
546 [label="gini = 0.0\nsamples = 1\nvalue = [0, 1, 0, 0, 0]\nclass = Corrupt", fillcolor="#7be539"] ;
538 -> 546 ;
547 [label="gini = 0.0\nsamples = 7\nvalue = [0, 0, 0, 7, 0]\nclass = Duplicate", fillcolor="#3c39e5"] ;
537 -> 547 ;
548 [label="gini = 0.0\nsamples = 2\nvalue = [0, 2, 0, 0, 0]\nclass = Corrupt", fillcolor="#7be539"] ;
536 -> 548 ;
549 [label="X[39] <= 0.034\ngini = 0.264\nsamples = 64\nvalue = [10, 54, 0, 0, 0]\nclass = Corrupt", fillcolor="#93ea5e"] ;
523 -> 549 ;
550 [label="X[29] <= 1.896\ngini = 0.48\nsamples = 15\nvalue = [6, 9, 0, 0, 0]\nclass = Corrupt", fillcolor="#d3f6bd"] ;
549 -> 550 ;
551 [label="gini = 0.0\nsamples = 1\nvalue = [1, 0, 0, 0, 0]\nclass = Normal", fillcolor="#e58139"] ;
550 -> 551 ;
552 [label="X[27] <= 1.955\ngini = 0.459\nsamples = 14\nvalue = [5, 9, 0, 0, 0]\nclass = Corrupt", fillcolor="#c4f3a7"] ;
550 -> 552 ;
553 [label="X[38] <= 0.008\ngini = 0.494\nsamples = 9\nvalue = [4, 5, 0, 0, 0]\nclass = Corrupt", fillcolor="#e5fad7"] ;
552 -> 553 ;
554 [label="X[26] <= 0.89\ngini = 0.5\nsamples = 8\nvalue = [4, 4, 0, 0, 0]\nclass = Normal", fillcolor="#ffffff"] ;
553 -> 554 ;
555 [label="gini = 0.5\nsamples = 2\nvalue = [1, 1, 0, 0, 0]\nclass = Normal", fillcolor="#ffffff"] ;
554 -> 555 ;
556 [label="X[30] <= 0.932\ngini = 0.5\nsamples = 6\nvalue = [3, 3, 0, 0, 0]\nclass = Normal", fillcolor="#ffffff"] ;
554 -> 556 ;
557 [label="gini = 0.5\nsamples = 2\nvalue = [1, 1, 0, 0, 0]\nclass = Normal", fillcolor="#ffffff"] ;
556 -> 557 ;
558 [label="X[23] <= 1.97\ngini = 0.5\nsamples = 4\nvalue = [2, 2, 0, 0, 0]\nclass = Normal", fillcolor="#ffffff"] ;
556 -> 558 ;
559 [label="gini = 0.5\nsamples = 2\nvalue = [1, 1, 0, 0, 0]\nclass = Normal", fillcolor="#ffffff"] ;
558 -> 559 ;
560 [label="gini = 0.5\nsamples = 2\nvalue = [1, 1, 0, 0, 0]\nclass = Normal", fillcolor="#ffffff"] ;
558 -> 560 ;
561 [label="gini = 0.0\nsamples = 1\nvalue = [0, 1, 0, 0, 0]\nclass = Corrupt", fillcolor="#7be539"] ;
553 -> 561 ;
562 [label="X[32] <= 1.022\ngini = 0.32\nsamples = 5\nvalue = [1, 4, 0, 0, 0]\nclass = Corrupt", fillcolor="#9cec6a"] ;
552 -> 562 ;
563 [label="gini = 0.5\nsamples = 2\nvalue = [1, 1, 0, 0, 0]\nclass = Normal", fillcolor="#ffffff"] ;
562 -> 563 ;
564 [label="gini = 0.0\nsamples = 3\nvalue = [0, 3, 0, 0, 0]\nclass = Corrupt", fillcolor="#7be539"] ;
562 -> 564 ;
565 [label="X[31] <= 0.733\ngini = 0.15\nsamples = 49\nvalue = [4, 45, 0, 0, 0]\nclass = Corrupt", fillcolor="#87e74b"] ;
549 -> 565 ;
566 [label="X[32] <= 1.004\ngini = 0.5\nsamples = 2\nvalue = [1, 1, 0, 0, 0]\nclass = Normal", fillcolor="#ffffff"] ;
565 -> 566 ;
567 [label="gini = 0.0\nsamples = 1\nvalue = [1, 0, 0, 0, 0]\nclass = Normal", fillcolor="#e58139"] ;
566 -> 567 ;
568 [label="gini = 0.0\nsamples = 1\nvalue = [0, 1, 0, 0, 0]\nclass = Corrupt", fillcolor="#7be539"] ;
566 -> 568 ;
569 [label="X[29] <= 1.961\ngini = 0.12\nsamples = 47\nvalue = [3, 44, 0, 0, 0]\nclass = Corrupt", fillcolor="#84e746"] ;
565 -> 569 ;
570 [label="X[32] <= 1.0\ngini = 0.087\nsamples = 44\nvalue = [2, 42, 0, 0, 0]\nclass = Corrupt", fillcolor="#81e642"] ;
569 -> 570 ;
571 [label="X[23] <= 1.972\ngini = 0.444\nsamples = 3\nvalue = [1, 2, 0, 0, 0]\nclass = Corrupt", fillcolor="#bdf29c"] ;
570 -> 571 ;
572 [label="gini = 0.5\nsamples = 2\nvalue = [1, 1, 0, 0, 0]\nclass = Normal", fillcolor="#ffffff"] ;
571 -> 572 ;
573 [label="gini = 0.0\nsamples = 1\nvalue = [0, 1, 0, 0, 0]\nclass = Corrupt", fillcolor="#7be539"] ;
571 -> 573 ;
574 [label="X[37] <= 0.023\ngini = 0.048\nsamples = 41\nvalue = [1, 40, 0, 0, 0]\nclass = Corrupt", fillcolor="#7ee63e"] ;
570 -> 574 ;
575 [label="X[39] <= 0.037\ngini = 0.18\nsamples = 10\nvalue = [1, 9, 0, 0, 0]\nclass = Corrupt", fillcolor="#8ae84f"] ;
574 -> 575 ;
576 [label="gini = 0.0\nsamples = 9\nvalue = [0, 9, 0, 0, 0]\nclass = Corrupt", fillcolor="#7be539"] ;
575 -> 576 ;
577 [label="gini = 0.0\nsamples = 1\nvalue = [1, 0, 0, 0, 0]\nclass = Normal", fillcolor="#e58139"] ;
575 -> 577 ;
578 [label="gini = 0.0\nsamples = 31\nvalue = [0, 31, 0, 0, 0]\nclass = Corrupt", fillcolor="#7be539"] ;
574 -> 578 ;
579 [label="X[29] <= 1.962\ngini = 0.444\nsamples = 3\nvalue = [1, 2, 0, 0, 0]\nclass = Corrupt", fillcolor="#bdf29c"] ;
569 -> 579 ;
580 [label="gini = 0.5\nsamples = 2\nvalue = [1, 1, 0, 0, 0]\nclass = Normal", fillcolor="#ffffff"] ;
579 -> 580 ;
581 [label="gini = 0.0\nsamples = 1\nvalue = [0, 1, 0, 0, 0]\nclass = Corrupt", fillcolor="#7be539"] ;
579 -> 581 ;
582 [label="X[38] <= 0.009\ngini = 0.625\nsamples = 12\nvalue = [3, 3, 0, 6, 0]\nclass = Duplicate", fillcolor="#bebdf6"] ;
522 -> 582 ;
583 [label="X[26] <= 0.929\ngini = 0.54\nsamples = 10\nvalue = [3, 1, 0, 6, 0]\nclass = Duplicate", fillcolor="#abaaf4"] ;
582 -> 583 ;
584 [label="X[38] <= 0.008\ngini = 0.444\nsamples = 9\nvalue = [3, 0, 0, 6, 0]\nclass = Duplicate", fillcolor="#9e9cf2"] ;
583 -> 584 ;
585 [label="X[28] <= 0.898\ngini = 0.49\nsamples = 7\nvalue = [3, 0, 0, 4, 0]\nclass = Duplicate", fillcolor="#cecef8"] ;
584 -> 585 ;
586 [label="X[27] <= 1.927\ngini = 0.5\nsamples = 6\nvalue = [3, 0, 0, 3, 0]\nclass = Normal", fillcolor="#ffffff"] ;
585 -> 586 ;
587 [label="gini = 0.5\nsamples = 2\nvalue = [1, 0, 0, 1, 0]\nclass = Normal", fillcolor="#ffffff"] ;
586 -> 587 ;
588 [label="X[28] <= 0.883\ngini = 0.5\nsamples = 4\nvalue = [2, 0, 0, 2, 0]\nclass = Normal", fillcolor="#ffffff"] ;
586 -> 588 ;
589 [label="gini = 0.5\nsamples = 2\nvalue = [1, 0, 0, 1, 0]\nclass = Normal", fillcolor="#ffffff"] ;
588 -> 589 ;
590 [label="gini = 0.5\nsamples = 2\nvalue = [1, 0, 0, 1, 0]\nclass = Normal", fillcolor="#ffffff"] ;
588 -> 590 ;
591 [label="gini = 0.0\nsamples = 1\nvalue = [0, 0, 0, 1, 0]\nclass = Duplicate", fillcolor="#3c39e5"] ;
585 -> 591 ;
592 [label="gini = 0.0\nsamples = 2\nvalue = [0, 0, 0, 2, 0]\nclass = Duplicate", fillcolor="#3c39e5"] ;
584 -> 592 ;
593 [label="gini = 0.0\nsamples = 1\nvalue = [0, 1, 0, 0, 0]\nclass = Corrupt", fillcolor="#7be539"] ;
583 -> 593 ;
594 [label="gini = 0.0\nsamples = 2\nvalue = [0, 2, 0, 0, 0]\nclass = Corrupt", fillcolor="#7be539"] ;
582 -> 594 ;
595 [label="X[25] <= 1.753\ngini = 0.671\nsamples = 170\nvalue = [68, 57, 5, 40, 0]\nclass = Normal", fillcolor="#fcf3ec"] ;
521 -> 595 ;
596 [label="X[38] <= 0.029\ngini = 0.408\nsamples = 7\nvalue = [2, 0, 5, 0, 0]\nclass = Delay", fillcolor="#88efdc"] ;
595 -> 596 ;
597 [label="X[34] <= 1.5\ngini = 0.444\nsamples = 3\nvalue = [2, 0, 1, 0, 0]\nclass = Normal", fillcolor="#f2c09c"] ;
596 -> 597 ;
598 [label="gini = 0.5\nsamples = 2\nvalue = [1, 0, 1, 0, 0]\nclass = Normal", fillcolor="#ffffff"] ;
597 -> 598 ;
599 [label="gini = 0.0\nsamples = 1\nvalue = [1, 0, 0, 0, 0]\nclass = Normal", fillcolor="#e58139"] ;
597 -> 599 ;
600 [label="gini = 0.0\nsamples = 4\nvalue = [0, 0, 4, 0, 0]\nclass = Delay", fillcolor="#39e5c5"] ;
596 -> 600 ;
601 [label="X[30] <= 0.931\ngini = 0.654\nsamples = 163\nvalue = [66, 57, 0, 40, 0]\nclass = Normal", fillcolor="#fdf4ee"] ;
595 -> 601 ;
602 [label="X[24] <= 0.837\ngini = 0.63\nsamples = 127\nvalue = [56, 48, 0, 23, 0]\nclass = Normal", fillcolor="#fcf2eb"] ;
601 -> 602 ;
603 [label="X[25] <= 1.905\ngini = 0.623\nsamples = 17\nvalue = [6, 3, 0, 8, 0]\nclass = Duplicate", fillcolor="#dcdbfa"] ;
602 -> 603 ;
604 [label="X[37] <= 0.025\ngini = 0.512\nsamples = 11\nvalue = [3, 1, 0, 7, 0]\nclass = Duplicate", fillcolor="#9e9cf2"] ;
603 -> 604 ;
605 [label="X[24] <= 0.814\ngini = 0.625\nsamples = 4\nvalue = [2, 1, 0, 1, 0]\nclass = Normal", fillcolor="#f6d5bd"] ;
604 -> 605 ;
606 [label="gini = 0.0\nsamples = 1\nvalue = [0, 1, 0, 0, 0]\nclass = Corrupt", fillcolor="#7be539"] ;
605 -> 606 ;
607 [label="X[25] <= 1.854\ngini = 0.444\nsamples = 3\nvalue = [2, 0, 0, 1, 0]\nclass = Normal", fillcolor="#f2c09c"] ;
605 -> 607 ;
608 [label="gini = 0.0\nsamples = 1\nvalue = [1, 0, 0, 0, 0]\nclass = Normal", fillcolor="#e58139"] ;
607 -> 608 ;
609 [label="gini = 0.5\nsamples = 2\nvalue = [1, 0, 0, 1, 0]\nclass = Normal", fillcolor="#ffffff"] ;
607 -> 609 ;
610 [label="X[27] <= 1.81\ngini = 0.245\nsamples = 7\nvalue = [1, 0, 0, 6, 0]\nclass = Duplicate", fillcolor="#5d5ae9"] ;
604 -> 610 ;
611 [label="gini = 0.5\nsamples = 2\nvalue = [1, 0, 0, 1, 0]\nclass = Normal", fillcolor="#ffffff"] ;
610 -> 611 ;
612 [label="gini = 0.0\nsamples = 5\nvalue = [0, 0, 0, 5, 0]\nclass = Duplicate", fillcolor="#3c39e5"] ;
610 -> 612 ;
613 [label="X[23] <= 3.037\ngini = 0.611\nsamples = 6\nvalue = [3, 2, 0, 1, 0]\nclass = Normal", fillcolor="#f8e0ce"] ;
603 -> 613 ;
614 [label="X[38] <= 0.015\ngini = 0.5\nsamples = 4\nvalue = [2, 2, 0, 0, 0]\nclass = Normal", fillcolor="#ffffff"] ;
613 -> 614 ;
615 [label="gini = 0.5\nsamples = 2\nvalue = [1, 1, 0, 0, 0]\nclass = Normal", fillcolor="#ffffff"] ;
614 -> 615 ;
616 [label="gini = 0.5\nsamples = 2\nvalue = [1, 1, 0, 0, 0]\nclass = Normal", fillcolor="#ffffff"] ;
614 -> 616 ;
617 [label="gini = 0.5\nsamples = 2\nvalue = [1, 0, 0, 1, 0]\nclass = Normal", fillcolor="#ffffff"] ;
613 -> 617 ;
618 [label="X[28] <= 0.9\ngini = 0.607\nsamples = 110\nvalue = [50, 45, 0, 15, 0]\nclass = Normal", fillcolor="#fdf5f0"] ;
602 -> 618 ;
619 [label="X[32] <= 1.028\ngini = 0.589\nsamples = 103\nvalue = [48, 44, 0, 11, 0]\nclass = Normal", fillcolor="#fdf6f2"] ;
618 -> 619 ;
620 [label="X[26] <= 0.936\ngini = 0.577\nsamples = 89\nvalue = [39, 42, 0, 8, 0]\nclass = Corrupt", fillcolor="#f7fdf3"] ;
619 -> 620 ;
621 [label="X[32] <= 0.982\ngini = 0.578\nsamples = 86\nvalue = [36, 42, 0, 8, 0]\nclass = Corrupt", fillcolor="#effce7"] ;
620 -> 621 ;
622 [label="X[32] <= 0.978\ngini = 0.622\nsamples = 42\nvalue = [19, 16, 0, 7, 0]\nclass = Normal", fillcolor="#fcf0e8"] ;
621 -> 622 ;
623 [label="X[39] <= 0.042\ngini = 0.602\nsamples = 28\nvalue = [10, 14, 0, 4, 0]\nclass = Corrupt", fillcolor="#e2f9d3"] ;
622 -> 623 ;
624 [label="X[39] <= 0.04\ngini = 0.391\nsamples = 15\nvalue = [4, 11, 0, 0, 0]\nclass = Corrupt", fillcolor="#abee81"] ;
623 -> 624 ;
625 [label="X[28] <= 0.875\ngini = 0.444\nsamples = 3\nvalue = [2, 1, 0, 0, 0]\nclass = Normal", fillcolor="#f2c09c"] ;
624 -> 625 ;
626 [label="gini = 0.0\nsamples = 1\nvalue = [1, 0, 0, 0, 0]\nclass = Normal", fillcolor="#e58139"] ;
625 -> 626 ;
627 [label="gini = 0.5\nsamples = 2\nvalue = [1, 1, 0, 0, 0]\nclass = Normal", fillcolor="#ffffff"] ;
625 -> 627 ;
628 [label="X[23] <= 2.017\ngini = 0.278\nsamples = 12\nvalue = [2, 10, 0, 0, 0]\nclass = Corrupt", fillcolor="#95ea61"] ;
624 -> 628 ;
629 [label="X[27] <= 1.853\ngini = 0.18\nsamples = 10\nvalue = [1, 9, 0, 0, 0]\nclass = Corrupt", fillcolor="#8ae84f"] ;
628 -> 629 ;
630 [label="X[29] <= 1.838\ngini = 0.375\nsamples = 4\nvalue = [1, 3, 0, 0, 0]\nclass = Corrupt", fillcolor="#a7ee7b"] ;
629 -> 630 ;
631 [label="gini = 0.0\nsamples = 3\nvalue = [0, 3, 0, 0, 0]\nclass = Corrupt", fillcolor="#7be539"] ;
630 -> 631 ;
632 [label="gini = 0.0\nsamples = 1\nvalue = [1, 0, 0, 0, 0]\nclass = Normal", fillcolor="#e58139"] ;
630 -> 632 ;
633 [label="gini = 0.0\nsamples = 6\nvalue = [0, 6, 0, 0, 0]\nclass = Corrupt", fillcolor="#7be539"] ;
629 -> 633 ;
634 [label="gini = 0.5\nsamples = 2\nvalue = [1, 1, 0, 0, 0]\nclass = Normal", fillcolor="#ffffff"] ;
628 -> 634 ;
635 [label="X[24] <= 0.893\ngini = 0.639\nsamples = 13\nvalue = [6, 3, 0, 4, 0]\nclass = Normal", fillcolor="#f9e3d3"] ;
623 -> 635 ;
636 [label="X[26] <= 0.885\ngini = 0.444\nsamples = 9\nvalue = [6, 3, 0, 0, 0]\nclass = Normal", fillcolor="#f2c09c"] ;
635 -> 636 ;
637 [label="X[39] <= 0.044\ngini = 0.469\nsamples = 8\nvalue = [5, 3, 0, 0, 0]\nclass = Normal", fillcolor="#f5cdb0"] ;
636 -> 637 ;
638 [label="X[25] <= 1.861\ngini = 0.49\nsamples = 7\nvalue = [4, 3, 0, 0, 0]\nclass = Normal", fillcolor="#f8e0ce"] ;
637 -> 638 ;
639 [label="X[31] <= 0.798\ngini = 0.444\nsamples = 3\nvalue = [2, 1, 0, 0, 0]\nclass = Normal", fillcolor="#f2c09c"] ;
638 -> 639 ;
640 [label="gini = 0.5\nsamples = 2\nvalue = [1, 1, 0, 0, 0]\nclass = Normal", fillcolor="#ffffff"] ;
639 -> 640 ;
641 [label="gini = 0.0\nsamples = 1\nvalue = [1, 0, 0, 0, 0]\nclass = Normal", fillcolor="#e58139"] ;
639 -> 641 ;
642 [label="X[23] <= 1.93\ngini = 0.5\nsamples = 4\nvalue = [2, 2, 0, 0, 0]\nclass = Normal", fillcolor="#ffffff"] ;
638 -> 642 ;
643 [label="gini = 0.5\nsamples = 2\nvalue = [1, 1, 0, 0, 0]\nclass = Normal", fillcolor="#ffffff"] ;
642 -> 643 ;
644 [label="gini = 0.5\nsamples = 2\nvalue = [1, 1, 0, 0, 0]\nclass = Normal", fillcolor="#ffffff"] ;
642 -> 644 ;
645 [label="gini = 0.0\nsamples = 1\nvalue = [1, 0, 0, 0, 0]\nclass = Normal", fillcolor="#e58139"] ;
637 -> 645 ;
646 [label="gini = 0.0\nsamples = 1\nvalue = [1, 0, 0, 0, 0]\nclass = Normal", fillcolor="#e58139"] ;
636 -> 646 ;
647 [label="gini = 0.0\nsamples = 4\nvalue = [0, 0, 0, 4, 0]\nclass = Duplicate", fillcolor="#3c39e5"] ;
635 -> 647 ;
648 [label="X[32] <= 0.978\ngini = 0.52\nsamples = 14\nvalue = [9, 2, 0, 3, 0]\nclass = Normal", fillcolor="#f1ba93"] ;
622 -> 648 ;
649 [label="X[31] <= 0.83\ngini = 0.375\nsamples = 8\nvalue = [6, 2, 0, 0, 0]\nclass = Normal", fillcolor="#eeab7b"] ;
648 -> 649 ;
650 [label="X[39] <= 0.041\ngini = 0.48\nsamples = 5\nvalue = [3, 2, 0, 0, 0]\nclass = Normal", fillcolor="#f6d5bd"] ;
649 -> 650 ;
651 [label="gini = 0.0\nsamples = 1\nvalue = [1, 0, 0, 0, 0]\nclass = Normal", fillcolor="#e58139"] ;
650 -> 651 ;
652 [label="X[23] <= 1.882\ngini = 0.5\nsamples = 4\nvalue = [2, 2, 0, 0, 0]\nclass = Normal", fillcolor="#ffffff"] ;
650 -> 652 ;
653 [label="gini = 0.5\nsamples = 2\nvalue = [1, 1, 0, 0, 0]\nclass = Normal", fillcolor="#ffffff"] ;
652 -> 653 ;
654 [label="gini = 0.5\nsamples = 2\nvalue = [1, 1, 0, 0, 0]\nclass = Normal", fillcolor="#ffffff"] ;
652 -> 654 ;
655 [label="gini = 0.0\nsamples = 3\nvalue = [3, 0, 0, 0, 0]\nclass = Normal", fillcolor="#e58139"] ;
649 -> 655 ;
656 [label="X[25] <= 1.86\ngini = 0.5\nsamples = 6\nvalue = [3, 0, 0, 3, 0]\nclass = Normal", fillcolor="#ffffff"] ;
648 -> 656 ;
657 [label="gini = 0.0\nsamples = 2\nvalue = [2, 0, 0, 0, 0]\nclass = Normal", fillcolor="#e58139"] ;
656 -> 657 ;
658 [label="X[29] <= 1.881\ngini = 0.375\nsamples = 4\nvalue = [1, 0, 0, 3, 0]\nclass = Duplicate", fillcolor="#7d7bee"] ;
656 -> 658 ;
659 [label="gini = 0.0\nsamples = 2\nvalue = [0, 0, 0, 2, 0]\nclass = Duplicate", fillcolor="#3c39e5"] ;
658 -> 659 ;
660 [label="gini = 0.5\nsamples = 2\nvalue = [1, 0, 0, 1, 0]\nclass = Normal", fillcolor="#ffffff"] ;
658 -> 660 ;
661 [label="X[39] <= 0.035\ngini = 0.501\nsamples = 44\nvalue = [17, 26, 0, 1, 0]\nclass = Corrupt", fillcolor="#d3f6bd"] ;
621 -> 661 ;
662 [label="gini = 0.0\nsamples = 2\nvalue = [2, 0, 0, 0, 0]\nclass = Normal", fillcolor="#e58139"] ;
661 -> 662 ;
663 [label="X[28] <= 0.823\ngini = 0.489\nsamples = 42\nvalue = [15, 26, 0, 1, 0]\nclass = Corrupt", fillcolor="#c9f4ae"] ;
661 -> 663 ;
664 [label="X[30] <= 0.9\ngini = 0.56\nsamples = 5\nvalue = [3, 1, 0, 1, 0]\nclass = Normal", fillcolor="#f2c09c"] ;
663 -> 664 ;
665 [label="X[26] <= 0.852\ngini = 0.444\nsamples = 3\nvalue = [2, 1, 0, 0, 0]\nclass = Normal", fillcolor="#f2c09c"] ;
664 -> 665 ;
666 [label="gini = 0.5\nsamples = 2\nvalue = [1, 1, 0, 0, 0]\nclass = Normal", fillcolor="#ffffff"] ;
665 -> 666 ;
667 [label="gini = 0.0\nsamples = 1\nvalue = [1, 0, 0, 0, 0]\nclass = Normal", fillcolor="#e58139"] ;
665 -> 667 ;
668 [label="gini = 0.5\nsamples = 2\nvalue = [1, 0, 0, 1, 0]\nclass = Normal", fillcolor="#ffffff"] ;
664 -> 668 ;
669 [label="X[30] <= 0.906\ngini = 0.438\nsamples = 37\nvalue = [12, 25, 0, 0, 0]\nclass = Corrupt", fillcolor="#baf198"] ;
663 -> 669 ;
670 [label="gini = 0.0\nsamples = 3\nvalue = [0, 3, 0, 0, 0]\nclass = Corrupt", fillcolor="#7be539"] ;
669 -> 670 ;
671 [label="X[38] <= 0.009\ngini = 0.457\nsamples = 34\nvalue = [12, 22, 0, 0, 0]\nclass = Corrupt", fillcolor="#c3f3a5"] ;
669 -> 671 ;
672 [label="X[37] <= 0.026\ngini = 0.469\nsamples = 32\nvalue = [12, 20, 0, 0, 0]\nclass = Corrupt", fillcolor="#caf5b0"] ;
671 -> 672 ;
673 [label="X[29] <= 1.928\ngini = 0.444\nsamples = 24\nvalue = [8, 16, 0, 0, 0]\nclass = Corrupt", fillcolor="#bdf29c"] ;
672 -> 673 ;
674 [label="X[28] <= 0.867\ngini = 0.463\nsamples = 22\nvalue = [8, 14, 0, 0, 0]\nclass = Corrupt", fillcolor="#c6f4aa"] ;
673 -> 674 ;
675 [label="X[23] <= 1.946\ngini = 0.43\nsamples = 16\nvalue = [5, 11, 0, 0, 0]\nclass = Corrupt", fillcolor="#b7f193"] ;
674 -> 675 ;
676 [label="X[31] <= 0.821\ngini = 0.473\nsamples = 13\nvalue = [5, 8, 0, 0, 0]\nclass = Corrupt", fillcolor="#cef5b5"] ;
675 -> 676 ;
677 [label="X[28] <= 0.858\ngini = 0.444\nsamples = 12\nvalue = [4, 8, 0, 0, 0]\nclass = Corrupt", fillcolor="#bdf29c"] ;
676 -> 677 ;
678 [label="X[32] <= 1.027\ngini = 0.463\nsamples = 11\nvalue = [4, 7, 0, 0, 0]\nclass = Corrupt", fillcolor="#c6f4aa"] ;
677 -> 678 ;
679 [label="X[39] <= 0.042\ngini = 0.48\nsamples = 10\nvalue = [4, 6, 0, 0, 0]\nclass = Corrupt", fillcolor="#d3f6bd"] ;
678 -> 679 ;
680 [label="X[29] <= 1.892\ngini = 0.494\nsamples = 9\nvalue = [4, 5, 0, 0, 0]\nclass = Corrupt", fillcolor="#e5fad7"] ;
679 -> 680 ;
681 [label="X[26] <= 0.853\ngini = 0.444\nsamples = 3\nvalue = [1, 2, 0, 0, 0]\nclass = Corrupt", fillcolor="#bdf29c"] ;
680 -> 681 ;
682 [label="gini = 0.5\nsamples = 2\nvalue = [1, 1, 0, 0, 0]\nclass = Normal", fillcolor="#ffffff"] ;
681 -> 682 ;
683 [label="gini = 0.0\nsamples = 1\nvalue = [0, 1, 0, 0, 0]\nclass = Corrupt", fillcolor="#7be539"] ;
681 -> 683 ;
684 [label="X[32] <= 1.012\ngini = 0.5\nsamples = 6\nvalue = [3, 3, 0, 0, 0]\nclass = Normal", fillcolor="#ffffff"] ;
680 -> 684 ;
685 [label="gini = 0.5\nsamples = 2\nvalue = [1, 1, 0, 0, 0]\nclass = Normal", fillcolor="#ffffff"] ;
684 -> 685 ;
686 [label="X[24] <= 0.88\ngini = 0.5\nsamples = 4\nvalue = [2, 2, 0, 0, 0]\nclass = Normal", fillcolor="#ffffff"] ;
684 -> 686 ;
687 [label="gini = 0.5\nsamples = 2\nvalue = [1, 1, 0, 0, 0]\nclass = Normal", fillcolor="#ffffff"] ;
686 -> 687 ;
688 [label="gini = 0.5\nsamples = 2\nvalue = [1, 1, 0, 0, 0]\nclass = Normal", fillcolor="#ffffff"] ;
686 -> 688 ;
689 [label="gini = 0.0\nsamples = 1\nvalue = [0, 1, 0, 0, 0]\nclass = Corrupt", fillcolor="#7be539"] ;
679 -> 689 ;
690 [label="gini = 0.0\nsamples = 1\nvalue = [0, 1, 0, 0, 0]\nclass = Corrupt", fillcolor="#7be539"] ;
678 -> 690 ;
691 [label="gini = 0.0\nsamples = 1\nvalue = [0, 1, 0, 0, 0]\nclass = Corrupt", fillcolor="#7be539"] ;
677 -> 691 ;
692 [label="gini = 0.0\nsamples = 1\nvalue = [1, 0, 0, 0, 0]\nclass = Normal", fillcolor="#e58139"] ;
676 -> 692 ;
693 [label="gini = 0.0\nsamples = 3\nvalue = [0, 3, 0, 0, 0]\nclass = Corrupt", fillcolor="#7be539"] ;
675 -> 693 ;
694 [label="X[30] <= 0.921\ngini = 0.5\nsamples = 6\nvalue = [3, 3, 0, 0, 0]\nclass = Normal", fillcolor="#ffffff"] ;
674 -> 694 ;
695 [label="gini = 0.5\nsamples = 2\nvalue = [1, 1, 0, 0, 0]\nclass = Normal", fillcolor="#ffffff"] ;
694 -> 695 ;
696 [label="X[27] <= 1.936\ngini = 0.5\nsamples = 4\nvalue = [2, 2, 0, 0, 0]\nclass = Normal", fillcolor="#ffffff"] ;
694 -> 696 ;
697 [label="gini = 0.5\nsamples = 2\nvalue = [1, 1, 0, 0, 0]\nclass = Normal", fillcolor="#ffffff"] ;
696 -> 697 ;
698 [label="gini = 0.5\nsamples = 2\nvalue = [1, 1, 0, 0, 0]\nclass = Normal", fillcolor="#ffffff"] ;
696 -> 698 ;
699 [label="gini = 0.0\nsamples = 2\nvalue = [0, 2, 0, 0, 0]\nclass = Corrupt", fillcolor="#7be539"] ;
673 -> 699 ;
700 [label="X[26] <= 0.877\ngini = 0.5\nsamples = 8\nvalue = [4, 4, 0, 0, 0]\nclass = Normal", fillcolor="#ffffff"] ;
672 -> 700 ;
701 [label="gini = 0.5\nsamples = 2\nvalue = [1, 1, 0, 0, 0]\nclass = Normal", fillcolor="#ffffff"] ;
700 -> 701 ;
702 [label="X[31] <= 0.817\ngini = 0.5\nsamples = 6\nvalue = [3, 3, 0, 0, 0]\nclass = Normal", fillcolor="#ffffff"] ;
700 -> 702 ;
703 [label="gini = 0.5\nsamples = 2\nvalue = [1, 1, 0, 0, 0]\nclass = Normal", fillcolor="#ffffff"] ;
702 -> 703 ;
704 [label="X[26] <= 0.899\ngini = 0.5\nsamples = 4\nvalue = [2, 2, 0, 0, 0]\nclass = Normal", fillcolor="#ffffff"] ;
702 -> 704 ;
705 [label="gini = 0.5\nsamples = 2\nvalue = [1, 1, 0, 0, 0]\nclass = Normal", fillcolor="#ffffff"] ;
704 -> 705 ;
706 [label="gini = 0.5\nsamples = 2\nvalue = [1, 1, 0, 0, 0]\nclass = Normal", fillcolor="#ffffff"] ;
704 -> 706 ;
707 [label="gini = 0.0\nsamples = 2\nvalue = [0, 2, 0, 0, 0]\nclass = Corrupt", fillcolor="#7be539"] ;
671 -> 707 ;
708 [label="gini = 0.0\nsamples = 3\nvalue = [3, 0, 0, 0, 0]\nclass = Normal", fillcolor="#e58139"] ;
620 -> 708 ;
709 [label="X[24] <= 0.871\ngini = 0.52\nsamples = 14\nvalue = [9, 2, 0, 3, 0]\nclass = Normal", fillcolor="#f1ba93"] ;
619 -> 709 ;
710 [label="gini = 0.0\nsamples = 1\nvalue = [0, 1, 0, 0, 0]\nclass = Corrupt", fillcolor="#7be539"] ;
709 -> 710 ;
711 [label="X[23] <= 1.956\ngini = 0.462\nsamples = 13\nvalue = [9, 1, 0, 3, 0]\nclass = Normal", fillcolor="#efb388"] ;
709 -> 711 ;
712 [label="X[32] <= 1.031\ngini = 0.34\nsamples = 10\nvalue = [8, 1, 0, 1, 0]\nclass = Normal", fillcolor="#eb9d65"] ;
711 -> 712 ;
713 [label="gini = 0.0\nsamples = 6\nvalue = [6, 0, 0, 0, 0]\nclass = Normal", fillcolor="#e58139"] ;
712 -> 713 ;
714 [label="X[32] <= 1.033\ngini = 0.625\nsamples = 4\nvalue = [2, 1, 0, 1, 0]\nclass = Normal", fillcolor="#f6d5bd"] ;
712 -> 714 ;
715 [label="gini = 0.5\nsamples = 2\nvalue = [1, 1, 0, 0, 0]\nclass = Normal", fillcolor="#ffffff"] ;
714 -> 715 ;
716 [label="gini = 0.5\nsamples = 2\nvalue = [1, 0, 0, 1, 0]\nclass = Normal", fillcolor="#ffffff"] ;
714 -> 716 ;
717 [label="X[29] <= 1.924\ngini = 0.444\nsamples = 3\nvalue = [1, 0, 0, 2, 0]\nclass = Duplicate", fillcolor="#9e9cf2"] ;
711 -> 717 ;
718 [label="gini = 0.5\nsamples = 2\nvalue = [1, 0, 0, 1, 0]\nclass = Normal", fillcolor="#ffffff"] ;
717 -> 718 ;
719 [label="gini = 0.0\nsamples = 1\nvalue = [0, 0, 0, 1, 0]\nclass = Duplicate", fillcolor="#3c39e5"] ;
717 -> 719 ;
720 [label="X[38] <= 0.009\ngini = 0.571\nsamples = 7\nvalue = [2, 1, 0, 4, 0]\nclass = Duplicate", fillcolor="#b1b0f5"] ;
618 -> 720 ;
721 [label="X[37] <= 0.025\ngini = 0.32\nsamples = 5\nvalue = [1, 0, 0, 4, 0]\nclass = Duplicate", fillcolor="#6d6aec"] ;
720 -> 721 ;
722 [label="gini = 0.5\nsamples = 2\nvalue = [1, 0, 0, 1, 0]\nclass = Normal", fillcolor="#ffffff"] ;
721 -> 722 ;
723 [label="gini = 0.0\nsamples = 3\nvalue = [0, 0, 0, 3, 0]\nclass = Duplicate", fillcolor="#3c39e5"] ;
721 -> 723 ;
724 [label="gini = 0.5\nsamples = 2\nvalue = [1, 1, 0, 0, 0]\nclass = Normal", fillcolor="#ffffff"] ;
720 -> 724 ;
725 [label="X[38] <= 0.01\ngini = 0.637\nsamples = 36\nvalue = [10, 9, 0, 17, 0]\nclass = Duplicate", fillcolor="#cbcaf8"] ;
601 -> 725 ;
726 [label="X[32] <= 1.031\ngini = 0.559\nsamples = 26\nvalue = [8, 3, 0, 15, 0]\nclass = Duplicate", fillcolor="#b3b2f5"] ;
725 -> 726 ;
727 [label="X[32] <= 1.029\ngini = 0.59\nsamples = 23\nvalue = [8, 3, 0, 12, 0]\nclass = Duplicate", fillcolor="#cbcaf8"] ;
726 -> 727 ;
728 [label="X[31] <= 0.835\ngini = 0.491\nsamples = 17\nvalue = [5, 1, 0, 11, 0]\nclass = Duplicate", fillcolor="#9d9cf2"] ;
727 -> 728 ;
729 [label="gini = 0.0\nsamples = 1\nvalue = [0, 1, 0, 0, 0]\nclass = Corrupt", fillcolor="#7be539"] ;
728 -> 729 ;
730 [label="X[23] <= 1.969\ngini = 0.43\nsamples = 16\nvalue = [5, 0, 0, 11, 0]\nclass = Duplicate", fillcolor="#9593f1"] ;
728 -> 730 ;
731 [label="gini = 0.0\nsamples = 5\nvalue = [0, 0, 0, 5, 0]\nclass = Duplicate", fillcolor="#3c39e5"] ;
730 -> 731 ;
732 [label="X[32] <= 1.028\ngini = 0.496\nsamples = 11\nvalue = [5, 0, 0, 6, 0]\nclass = Duplicate", fillcolor="#dedefb"] ;
730 -> 732 ;
733 [label="X[27] <= 1.951\ngini = 0.5\nsamples = 10\nvalue = [5, 0, 0, 5, 0]\nclass = Normal", fillcolor="#ffffff"] ;
732 -> 733 ;
734 [label="X[25] <= 1.949\ngini = 0.444\nsamples = 3\nvalue = [1, 0, 0, 2, 0]\nclass = Duplicate", fillcolor="#9e9cf2"] ;
733 -> 734 ;
735 [label="gini = 0.5\nsamples = 2\nvalue = [1, 0, 0, 1, 0]\nclass = Normal", fillcolor="#ffffff"] ;
734 -> 735 ;
736 [label="gini = 0.0\nsamples = 1\nvalue = [0, 0, 0, 1, 0]\nclass = Duplicate", fillcolor="#3c39e5"] ;
734 -> 736 ;
737 [label="X[30] <= 0.938\ngini = 0.49\nsamples = 7\nvalue = [4, 0, 0, 3, 0]\nclass = Normal", fillcolor="#f8e0ce"] ;
733 -> 737 ;
738 [label="gini = 0.0\nsamples = 1\nvalue = [1, 0, 0, 0, 0]\nclass = Normal", fillcolor="#e58139"] ;
737 -> 738 ;
739 [label="X[27] <= 1.965\ngini = 0.5\nsamples = 6\nvalue = [3, 0, 0, 3, 0]\nclass = Normal", fillcolor="#ffffff"] ;
737 -> 739 ;
740 [label="gini = 0.5\nsamples = 2\nvalue = [1, 0, 0, 1, 0]\nclass = Normal", fillcolor="#ffffff"] ;
739 -> 740 ;
741 [label="X[31] <= 0.863\ngini = 0.5\nsamples = 4\nvalue = [2, 0, 0, 2, 0]\nclass = Normal", fillcolor="#ffffff"] ;
739 -> 741 ;
742 [label="gini = 0.5\nsamples = 2\nvalue = [1, 0, 0, 1, 0]\nclass = Normal", fillcolor="#ffffff"] ;
741 -> 742 ;
743 [label="gini = 0.5\nsamples = 2\nvalue = [1, 0, 0, 1, 0]\nclass = Normal", fillcolor="#ffffff"] ;
741 -> 743 ;
744 [label="gini = 0.0\nsamples = 1\nvalue = [0, 0, 0, 1, 0]\nclass = Duplicate", fillcolor="#3c39e5"] ;
732 -> 744 ;
745 [label="X[26] <= 0.906\ngini = 0.611\nsamples = 6\nvalue = [3, 2, 0, 1, 0]\nclass = Normal", fillcolor="#f8e0ce"] ;
727 -> 745 ;
746 [label="X[27] <= 1.945\ngini = 0.444\nsamples = 3\nvalue = [2, 0, 0, 1, 0]\nclass = Normal", fillcolor="#f2c09c"] ;
745 -> 746 ;
747 [label="gini = 0.5\nsamples = 2\nvalue = [1, 0, 0, 1, 0]\nclass = Normal", fillcolor="#ffffff"] ;
746 -> 747 ;
748 [label="gini = 0.0\nsamples = 1\nvalue = [1, 0, 0, 0, 0]\nclass = Normal", fillcolor="#e58139"] ;
746 -> 748 ;
749 [label="X[27] <= 1.95\ngini = 0.444\nsamples = 3\nvalue = [1, 2, 0, 0, 0]\nclass = Corrupt", fillcolor="#bdf29c"] ;
745 -> 749 ;
750 [label="gini = 0.0\nsamples = 1\nvalue = [0, 1, 0, 0, 0]\nclass = Corrupt", fillcolor="#7be539"] ;
749 -> 750 ;
751 [label="gini = 0.5\nsamples = 2\nvalue = [1, 1, 0, 0, 0]\nclass = Normal", fillcolor="#ffffff"] ;
749 -> 751 ;
752 [label="gini = 0.0\nsamples = 3\nvalue = [0, 0, 0, 3, 0]\nclass = Duplicate", fillcolor="#3c39e5"] ;
726 -> 752 ;
753 [label="X[25] <= 2.002\ngini = 0.56\nsamples = 10\nvalue = [2, 6, 0, 2, 0]\nclass = Corrupt", fillcolor="#bdf29c"] ;
725 -> 753 ;
754 [label="X[39] <= 0.041\ngini = 0.375\nsamples = 8\nvalue = [2, 6, 0, 0, 0]\nclass = Corrupt", fillcolor="#a7ee7b"] ;
753 -> 754 ;
755 [label="gini = 0.0\nsamples = 1\nvalue = [1, 0, 0, 0, 0]\nclass = Normal", fillcolor="#e58139"] ;
754 -> 755 ;
756 [label="X[37] <= 0.026\ngini = 0.245\nsamples = 7\nvalue = [1, 6, 0, 0, 0]\nclass = Corrupt", fillcolor="#91e95a"] ;
754 -> 756 ;
757 [label="gini = 0.0\nsamples = 5\nvalue = [0, 5, 0, 0, 0]\nclass = Corrupt", fillcolor="#7be539"] ;
756 -> 757 ;
758 [label="gini = 0.5\nsamples = 2\nvalue = [1, 1, 0, 0, 0]\nclass = Normal", fillcolor="#ffffff"] ;
756 -> 758 ;
759 [label="gini = 0.0\nsamples = 2\nvalue = [0, 0, 0, 2, 0]\nclass = Duplicate", fillcolor="#3c39e5"] ;
753 -> 759 ;
760 [label="X[18] <= 0.5\ngini = 0.62\nsamples = 270\nvalue = [98, 38, 5, 129, 0]\nclass = Duplicate", fillcolor="#dcdbfa"] ;
520 -> 760 ;
761 [label="gini = 0.0\nsamples = 5\nvalue = [0, 0, 5, 0, 0]\nclass = Delay", fillcolor="#39e5c5"] ;
760 -> 761 ;
762 [label="X[32] <= 1.028\ngini = 0.606\nsamples = 265\nvalue = [98, 38, 0, 129, 0]\nclass = Duplicate", fillcolor="#dbdafa"] ;
760 -> 762 ;
763 [label="X[25] <= 1.977\ngini = 0.638\nsamples = 179\nvalue = [70, 35, 0, 74, 0]\nclass = Duplicate", fillcolor="#f8f8fe"] ;
762 -> 763 ;
764 [label="X[26] <= 0.979\ngini = 0.543\nsamples = 76\nvalue = [21, 9, 0, 46, 0]\nclass = Duplicate", fillcolor="#a6a5f3"] ;
763 -> 764 ;
765 [label="X[29] <= 1.923\ngini = 0.464\nsamples = 63\nvalue = [19, 2, 0, 42, 0]\nclass = Duplicate", fillcolor="#9998f1"] ;
764 -> 765 ;
766 [label="gini = 0.0\nsamples = 2\nvalue = [2, 0, 0, 0, 0]\nclass = Normal", fillcolor="#e58139"] ;
765 -> 766 ;
767 [label="X[32] <= 1.025\ngini = 0.447\nsamples = 61\nvalue = [17, 2, 0, 42, 0]\nclass = Duplicate", fillcolor="#908ef0"] ;
765 -> 767 ;
768 [label="X[27] <= 1.951\ngini = 0.404\nsamples = 57\nvalue = [16, 0, 0, 41, 0]\nclass = Duplicate", fillcolor="#8886ef"] ;
767 -> 768 ;
769 [label="X[31] <= 0.883\ngini = 0.477\nsamples = 28\nvalue = [11, 0, 0, 17, 0]\nclass = Duplicate", fillcolor="#bab9f6"] ;
768 -> 769 ;
770 [label="X[38] <= 0.009\ngini = 0.298\nsamples = 11\nvalue = [2, 0, 0, 9, 0]\nclass = Duplicate", fillcolor="#6765eb"] ;
769 -> 770 ;
771 [label="gini = 0.0\nsamples = 5\nvalue = [0, 0, 0, 5, 0]\nclass = Duplicate", fillcolor="#3c39e5"] ;
770 -> 771 ;
772 [label="X[29] <= 1.924\ngini = 0.444\nsamples = 6\nvalue = [2, 0, 0, 4, 0]\nclass = Duplicate", fillcolor="#9e9cf2"] ;
770 -> 772 ;
773 [label="gini = 0.0\nsamples = 2\nvalue = [0, 0, 0, 2, 0]\nclass = Duplicate", fillcolor="#3c39e5"] ;
772 -> 773 ;
774 [label="X[25] <= 1.937\ngini = 0.5\nsamples = 4\nvalue = [2, 0, 0, 2, 0]\nclass = Normal", fillcolor="#ffffff"] ;
772 -> 774 ;
775 [label="gini = 0.5\nsamples = 2\nvalue = [1, 0, 0, 1, 0]\nclass = Normal", fillcolor="#ffffff"] ;
774 -> 775 ;
776 [label="gini = 0.5\nsamples = 2\nvalue = [1, 0, 0, 1, 0]\nclass = Normal", fillcolor="#ffffff"] ;
774 -> 776 ;
777 [label="X[32] <= 0.976\ngini = 0.498\nsamples = 17\nvalue = [9, 0, 0, 8, 0]\nclass = Normal", fillcolor="#fcf1e9"] ;
769 -> 777 ;
778 [label="gini = 0.0\nsamples = 2\nvalue = [2, 0, 0, 0, 0]\nclass = Normal", fillcolor="#e58139"] ;
777 -> 778 ;
779 [label="X[32] <= 0.98\ngini = 0.498\nsamples = 15\nvalue = [7, 0, 0, 8, 0]\nclass = Duplicate", fillcolor="#e7e6fc"] ;
777 -> 779 ;
780 [label="X[31] <= 0.894\ngini = 0.444\nsamples = 6\nvalue = [2, 0, 0, 4, 0]\nclass = Duplicate", fillcolor="#9e9cf2"] ;
779 -> 780 ;
781 [label="gini = 0.0\nsamples = 2\nvalue = [0, 0, 0, 2, 0]\nclass = Duplicate", fillcolor="#3c39e5"] ;
780 -> 781 ;
782 [label="X[37] <= 0.025\ngini = 0.5\nsamples = 4\nvalue = [2, 0, 0, 2, 0]\nclass = Normal", fillcolor="#ffffff"] ;
780 -> 782 ;
783 [label="gini = 0.5\nsamples = 2\nvalue = [1, 0, 0, 1, 0]\nclass = Normal", fillcolor="#ffffff"] ;
782 -> 783 ;
784 [label="gini = 0.5\nsamples = 2\nvalue = [1, 0, 0, 1, 0]\nclass = Normal", fillcolor="#ffffff"] ;
782 -> 784 ;
785 [label="X[31] <= 0.889\ngini = 0.494\nsamples = 9\nvalue = [5, 0, 0, 4, 0]\nclass = Normal", fillcolor="#fae6d7"] ;
779 -> 785 ;
786 [label="X[39] <= 0.034\ngini = 0.5\nsamples = 6\nvalue = [3, 0, 0, 3, 0]\nclass = Normal", fillcolor="#ffffff"] ;
785 -> 786 ;
787 [label="gini = 0.5\nsamples = 2\nvalue = [1, 0, 0, 1, 0]\nclass = Normal", fillcolor="#ffffff"] ;
786 -> 787 ;
788 [label="X[30] <= 0.934\ngini = 0.5\nsamples = 4\nvalue = [2, 0, 0, 2, 0]\nclass = Normal", fillcolor="#ffffff"] ;
786 -> 788 ;
789 [label="gini = 0.5\nsamples = 2\nvalue = [1, 0, 0, 1, 0]\nclass = Normal", fillcolor="#ffffff"] ;
788 -> 789 ;
790 [label="gini = 0.5\nsamples = 2\nvalue = [1, 0, 0, 1, 0]\nclass = Normal", fillcolor="#ffffff"] ;
788 -> 790 ;
791 [label="X[39] <= 0.033\ngini = 0.444\nsamples = 3\nvalue = [2, 0, 0, 1, 0]\nclass = Normal", fillcolor="#f2c09c"] ;
785 -> 791 ;
792 [label="gini = 0.5\nsamples = 2\nvalue = [1, 0, 0, 1, 0]\nclass = Normal", fillcolor="#ffffff"] ;
791 -> 792 ;
793 [label="gini = 0.0\nsamples = 1\nvalue = [1, 0, 0, 0, 0]\nclass = Normal", fillcolor="#e58139"] ;
791 -> 793 ;
794 [label="X[3] <= 1.201\ngini = 0.285\nsamples = 29\nvalue = [5, 0, 0, 24, 0]\nclass = Duplicate", fillcolor="#6562ea"] ;
768 -> 794 ;
